0.799994 0
0.827229 0
0.94461 0
0.523239 0
0.874336 0
0.153542 0
0.844885 0
0.046794 0
0.379645 0
0.986961 0
0.621322 0
0.839543 0
0.245472 0
0.461602 0
0.0362226 0
0.652337 0
0.771081 0
0.859712 0
0.756512 0
0.861864 0
0.727679 0
0.333668 0
0.804129 0
0.447531 0
0.453422 0
0.25221 0
0.883029 0
0.447457 0
0.998938 0
0.611927 0
0.541511 0
0.798931 0
0.439157 0
0.486121 0
0.32217 0
0.313493 0
0.639663 0
0.167054 0
0.360287 0
0.0193081 0
0.154016 0
0.981609 0
0.858851 0
0.399488 0
0.443211 0
0.895074 0
0.0518255 0
0.214291 0
0.754786 0
0.808338 0
0.0761556 0
0.482465 0
0.142006 0
0.880284 0
0.929995 0
0.595428 0
0.132494 0
0.813025 0
0.0428852 0
0.131431 0
0.424952 0
0.584396 0
0.930363 0
0.864108 0
0.0705167 0
0.252533 0
0.177601 0
0.710179 0
0.419587 0
0.537888 0
0.729487 0
0.573603 0
0.519497 0
0.588338 0
0.973091 0
0.962708 0
0.483412 0
0.0249168 0
0.176999 0
0.238198 0
0.833255 0
0.253154 0
0.720663 0
0.975261 0
0.133439 0
0.650658 0
0.570689 0
0.265933 0
0.463682 0
0.613574 0
0.397364 0
0.888634 0
0.19797 0
0.327727 0
0.752743 0
0.268487 0
0.58026 0
0.930344 0
0.978666 0
0.999847 0
0.468232 0
0.708153 0
0.57345 0
0.987729 0
0.296492 0
0.546541 0
0.950437 0
0.779904 0
0.571458 0
0.127436 0
0.018102 0
0.404713 0
0.38059 0
0.738764 0
0.379974 0
0.514029 0
0.389422 0
0.950663 0
0.779961 0
0.853105 0
0.564237 0
0.177325 0
0.741739 0
0.762207 0
0.505052 0
0.494482 0
0.0306934 0
0.0853121 0
0.424826 0
0.00935941 0
0.085159 0
0.893058 0
0.717513 0
0.658609 0
0.880788 0
0.0140046 0
0.205151 0
0.831225 0
0.793909 0
0.776609 0
0.95866 0
0.812011 0
0.181322 0
0.339251 0
0.550775 0
0.561296 0
0.85328 0
0.940197 0
0.511958 0
0.633241 0
0.793302 0
0.0761949 0
0.810566 0
0.535042 0
0.838402 0
0.315619 0
0.0295234 0
0.869095 0
0.400931 0
0.454349 0
0.878454 0
0.48609 0
0.347408 0
0.595967 0
0.144699 0
0.228195 0
0.609972 0
0.34985 0
0.0594198 0
0.40388 0
0.126458 0
0.0180803 0
0.215891 0
0.30778 0
0.357331 0
0.766666 0
0.869076 0
0.21061 0
0.706863 0
0.381034 0
0.843851 0
0.500166 0
0.457229 0
0.654418 0
0.0352075 0
0.29563 0
0.970036 0
0.0647309 0
0.164725 0
0.370967 0
0.51908 0
0.0431799 0
0.857057 0
0.866488 0
0.639147 0
0.00175567 0
0.0946827 0
0.249119 0
0.351605 0
0.154103 0
0.652999 0
0.478064 0
0.172183 0
0.86889 0
0.785844 0
0.529514 0
0.635556 0
0.65492 0
0.740124 0
0.34242 0
0.0359538 0
0.583976 0
0.842585 0
0.493183 0
0.238393 0
0.877793 0
0.788813 0
0.20843 0
0.942524 0
0.953539 0
0.579397 0
0.461604 0
0.996718 0
0.436454 0
0.328091 0
0.635866 0
0.438209 0
0.422774 0
0.884984 0
0.789814 0
0.576877 0
0.537984 0
0.267878 0
0.74906 0
0.406874 0
0.0537221 0
0.278573 0
0.0424297 0
0.708642 0
0.0186979 0
0.384849 0
0.744596 0
0.602674 0
0.227435 0
0.237778 0
0.841067 0
0.105227 0
0.0265914 0
0.0494968 0
0.0477512 0
0.98013 0
0.628894 0
0.509355 0
0.976848 0
0.0653472 0
0.837446 0
0.612714 0
0.503556 0
0.26022 0
0.497698 0
0.293371 0
0.837097 0
0.0356817 0
0.561249 0
0.586157 0
0.442555 0
0.614971 0
0.86473 0
0.484985 0
0.323613 0
0.883428 0
0.869834 0
0.0682087 0
0.486102 0
0.0972689 0
0.305987 0
0.327169 0
0.202496 0
0.332578 0
0.376666 0
0.250248 0
0.312708 0
0.00555926 0
0.759602 0
0.289557 0
0.0709065 0
0.597049 0
0.902271 0
0.574463 0
0.857269 0
0.399969 0
0.867834 0
0.694366 0
0.435651 0
0.429083 0
0.280523 0
0.878206 0
0.0440543 0
0.145253 0
0.363191 0
0.367667 0
0.0286813 0
0.233025 0
0.435876 0
0.514783 0
0.330294 0
0.741863 0
0.841952 0
0.53279 0
0.0744416 0
0.218617 0
0.783038 0
0.38715 0
0.224177 0
0.54264 0
0.676707 0
0.295083 0
0.139689 0
0.578977 0
0.869546 0
0.996959 0
0.978946 0
0.73738 0
0.691325 0
0.414597 0
0.166463 0
0.971848 0
0.292803 0
0.210517 0
0.117101 0
0.655994 0
0.578185 0
0.145783 0
0.889019 0
0.0140609 0
0.660565 0
0.219313 0
0.755924 0
0.502517 0
0.752103 0
0.830366 0
0.721135 0
0.535141 0
0.217516 0
0.945311 0
0.0777819 0
0.894222 0
0.240394 0
0.217471 0
0.4732 0
0.10994 0
0.21443 0
0.452146 0
0.84732 0
0.905755 0
0.866743 0
0.0137833 0
0.877603 0
0.159546 0
0.224301 0
0.994704 0
0.815539 0
0.802485 0
0.140486 0
0.704558 0
0.816546 0
0.801052 0
0.923871 0
0.57247 0
0.303569 0
0.675975 0
0.402836 0
0.0247036 0
0.211116 0
0.620352 0
0.970015 0
0.288898 0
0.514574 0
0.210409 0
0.506369 0
0.987774 0
0.320349 0
0.720799 0
0.43992 0
0.16767 0
0.626553 0
0.306663 0
0.181453 0
0.504156 0
0.466208 0
0.405754 0
0.49886 0
0.281748 0
0.208239 0
0.639346 0
0.986306 0
0.0247853 0
0.440398 0
0.910177 0
0.597256 0
0.743967 0
0.586152 0
9.18e-05 0
0.76867 0
0.797268 0
0.620444 0
0.738685 0
0.086166 0
0.135018 0
0.949094 0
0.592535 0
0.122792 0
0.269444 0
0.313334 0
0.562712 0
0.437113 0
0.939888 0
0.869375 0
0.618566 0
0.444044 0
0.335583 0
0.0243199 0
0.942903 0
0.617331 0
0.232559 0
0.582249 0
0.603637 0
0.257344 0
0.022647 0
0.513814 0
0.8546 0
0.766614 0
0.099966 0
0.854692 0
0.535284 0
0.897234 0
0.475135 0
0.273969 0
0.9834 0
0.610153 0
0.223063 0
0.575935 0
0.732945 0
0.492507 0
0.889269 0
0.295657 0
0.92962 0
0.829157 0
0.165032 0
0.548186 0
0.2732 0
0.500616 0
0.572506 0
0.216103 0
0.117947 0
0.805065 0
0.798353 0
0.721584 0
0.0624092 0
0.821 0
0.235398 0
0.917009 0
0.587614 0
0.335364 0
0.771701 0
0.122898 0
0.232598 0
0.246836 0
0.396867 0
0.215998 0
0.856989 0
0.61993 0
0.791933 0
0.589934 0
0.112437 0
0.681202 0
0.885592 0
0.0420567 0
0.510359 0
0.0506241 0
0.590243 0
0.783559 0
0.55124 0
0.162749 0
0.999663 0
0.669187 0
0.967814 0
0.798016 0
0.390771 0
0.0302233 0
0.619015 0
0.62617 0
0.947232 0
0.206629 0
0.961534 0
0.718933 0
0.329526 0
0.194132 0
0.965769 0
0.726393 0
0.41013 0
0.822758 0
0.346323 0
0.202064 0
0.412692 0
0.45876 0
0.883266 0
0.298284 0
0.500816 0
0.393625 0
0.348908 0
0.0910595 0
0.177185 0
0.900148 0
0.253809 0
0.176847 0
0.569335 0
0.221623 0
0.974863 0
0.960106 0
0.251846 0
0.593878 0
0.586276 0
0.199078 0
0.800507 0
0.54781 0
0.918011 0
0.130033 0
0.741942 0
0.88378 0
0.856426 0
0.152072 0
0.706538 0
0.202749 0
0.354135 0
0.11923 0
0.661509 0
0.237402 0
0.417513 0
0.162326 0
0.631027 0
0.766421 0
0.253385 0
0.808211 0
0.666569 0
0.507194 0
0.985059 0
0.235904 0
0.728816 0
0.959921 0
0.19601 0
0.980663 0
0.553799 0
0.782286 0
0.179741 0
0.354306 0
0.330095 0
0.0977521 0
0.48434 0
0.0720368 0
0.981532 0
0.340766 0
0.224109 0
0.68807 0
0.543516 0
0.578244 0
0.807299 0
0.205025 0
0.815646 0
0.224813 0
0.36735 0
0.446672 0
0.991234 0
0.620736 0
0.254884 0
0.657803 0
0.127929 0
0.239942 0
0.893707 0
0.856746 0
0.199864 0
0.0897169 0
0.837408 0
0.753663 0
0.872003 0
0.0171491 0
0.107969 0
0.202098 0
0.114901 0
0.592309 0
0.274134 0
0.0964332 0
0.933075 0
0.498243 0
0.784503 0
0.476591 0
0.0764873 0
0.591802 0
0.681616 0
0.892133 0
0.816615 0
0.048966 0
0.338805 0
0.807849 0
0.669702 0
0.593689 0
0.465652 0
0.797631 0
-57.2788 -2.06637e-183
-8.54373 -1.05147e-184
-10.0624 -1.59933e-184
-10.0122 -2.22466e-184
-12.3412 -2.34601e-184
-8.68074 -2.9581e-184
-20.3033 -5.57553e-184
-17.3086 -3.63001e-184
-11.2362 2.08067e-183
-11.3637 -2.97075e-184
-4.7492 -4.36715e-185
-54.5825 -1.81924e-183
-10.6673 -2.49588e-184
-11.4289 -1.75648e-184
-14.9224 -2.80295e-184
-9.16305 -5.13613e-184
-360.001 -1.28115e-182
-54.6944 -6.51914e-184
-65.5472 -9.91587e-184
-61.9113 -1.37929e-183
-79.2031 -1.45453e-183
-56.2909 -1.83402e-183
-130.497 -3.45683e-183
-108.391 -2.2506e-183
-72.1922 1.29002e-182
-75.4015 -1.84186e-183
-31.9677 -2.70763e-184
-341.982 -1.12793e-182
-68.9626 -1.54744e-183
-75.616 -1.08902e-183
-96.8894 -1.73783e-183
-59.3878 -3.1844e-183
0.54605 0
0.749392 0
0.0637953 0
0.995126 0
0.241177 0
0.850953 0
0.316205 0
0.750111 0
0.74608 0
0.839381 0
0.373946 0
0.233516 0
0.636692 0
0.0942136 0
0.654028 0
0.932246 0
-198.997 -2.12264e-52
-12.6409 -1.05444e-53
-21.5602 -1.58191e-53
-24.6988 -2.45778e-53
-32.8079 -2.42829e-53
-4.70191 -3.56711e-53
-75.3861 -5.98122e-53
-32.1806 -3.71676e-53
733.443 3.3371e-52
-29.9473 -3.12932e-53
8.20401 -4.81757e-54
-219.334 -2.04738e-52
-45.3917 -2.86648e-53
-5.72408 -1.45919e-53
-8.98352 -2.64895e-53
-1.70345 -5.81786e-53
-792.598 -5.22497e-52
-76.4539 -2.59555e-53
-111.299 -3.89393e-53
-115.05 -6.04992e-53
-145.476 -5.97733e-53
-56.6211 -8.78057e-53
-291.495 -1.4723e-52
-167.847 -9.14894e-53
1748.83 8.21439e-52
-134.034 -7.70295e-53
-1.66647 -1.18586e-53
-815.064 -5.0397e-52
-165.843 -7.05595e-53
-73.0075 -3.59186e-53
-101.427 -6.52049e-53
-48.9156 -1.43209e-52
-1203.38 -2.05243e-27
-158.585 -9.95331e-29
-207.393 -1.52991e-28
-198.562 -2.21862e-28
-241.772 -2.28932e-28
-149.13 -2.85187e-28
-408.951 -5.44564e-28
-316.415 -3.54454e-28
99.2532 1.94229e-27
-218.408 -2.90433e-28
-65.6782 -4.05119e-29
-1096.58 -1.78798e-27
-204.636 -2.39671e-28
-203.202 -1.46261e-28
-280.389 -2.77573e-28
-152.522 -4.97372e-28
-1048.25 -2.74015e-27
-131.719 -1.32884e-28
-172.567 -2.04255e-28
-169.314 -2.96203e-28
-202.243 -3.05642e-28
-121.087 -3.80747e-28
-339.202 -7.27036e-28
-264.505 -4.73224e-28
-182.048 2.59311e-27
-176.271 -3.87751e-28
-50.7679 -5.40866e-29
-914.952 -2.38709e-27
-161.31 -3.1998e-28
-167.963 -1.9527e-28
-242.267 -3.70582e-28
-124.607 -6.6403e-28
-159.074 -6.87725e-28
-19.791 -3.33514e-29
-25.8019 -5.12639e-29
-25.9599 -7.43411e-29
-31.3728 -7.67101e-29
-19.1 -9.55601e-29
-52.6687 -1.82472e-28
-40.7051 -1.1877e-28
-25.7441 6.50821e-28
-27.6922 -9.73179e-29
-7.97709 -1.35747e-29
-143.274 -5.99113e-28
-24.8204 -8.03088e-29
-25.834 -4.90089e-29
-36.7854 -9.30087e-29
-19.2437 -1.66659e-28
0.116554 0
0.327812 0
0.226151 0
0.718901 0
0.848399 0
0.653648 0
0.534483 0
0.633544 0
0.373901 0
0.199993 0
0.777463 0
0.0409397 0
0.647676 0
0.879138 0
0.205893 0
0.18182 0
0.634129 0
0.998609 0
0.370887 0
0.65118 0
0.176621 0
0.38632 0
0.260078 0
0.794844 0
0.59623 0
0.977294 0
0.00321155 0
0.399028 0
0.865355 0
0.70105 0
0.256923 0
0.981909 0
0.028862 0
0.483074 0
0.70081 0
0.877261 0
0.136721 0
0.235293 0
0.510805 0
0.510623 0
0.435286 0
0.288268 0
0.551562 0
0.0829621 0
0.167406 0
0.757455 0
0.264782 0
0.801535 0
0.756065 0
0.635669 0
0.452715 0
0.932685 0
0.0219893 0
0.712793 0
0.727529 0
0.618219 0
0.690087 0
0.730741 0
0.0172475 0
0.555442 0
0.431791 0
0.27417 0
0.537351 0
0.460653 0
0.757244 0
0.23816 0
0.337913 0
0.893966 0
0.473453 0
0.848718 0
0.404588 0
0.90874 0
0.136986 0
0.95615 0
0.991702 0
0.304392 0
0.713606 0
0.256484 0
0.105926 0
0.46967 0
0.892153 0
0.558641 0
0.402356 0
0.914142 0
0.271434 0
0.129885 0
0.532361 0
0.961521 0
0.860625 0
0.549609 0
0.516963 0
0.292416 0
0.823779 0
0.0543136 0
0.753069 0
0.581024 0
0.292474 0
0.0909818 0
0.474989 0
0.765927 0
0.9397 0
0.879577 0
0.674667 0
0.0766856 0
0.835728 0
0.666369 0
0.381077 0
0.549333 0
0.922853 0
0.487003 0
0.0190035 0
0.815006 0
0.0456444 0
0.421359 0
0.729148 0
0.317078 0
0.551244 0
0.26151 0
0.278599 0
0.411869 0
0.811118 0
0.795562 0
0.704285 0
0.634898 0
0.849875 0
0.457354 0
0.215921 0
0.142349 0
0.548336 0
0.690911 0
0.908277 0
0.488036 0
0.570488 0
0.582944 0
0.564721 0
0.406215 0
0.249313 0
0.945798 0
0.955549 0
0.172166 0
0.432802 0
0.974552 0
0.987171 0
0.478446 0
0.395911 0
0.716319 0
0.795524 0
0.947155 0
0.977829 0
0.0741234 0
0.359025 0
0.788948 0
0.869685 0
0.0633104 0
0.423845 0
0.719561 0
0.520664 0
0.639767 0
0.86191 0
0.0690003 0
0.330677 0
0.770187 0
0.557036 0
0.901165 0
0.353131 0
0.121757 0
0.30738 0
0.602444 0
0.0675559 0
0.262929 0
0.77461 0
0.500358 0
0.237481 0
0.761781 0
0.978804 0
0.633392 0
0.478101 0
0.774328 0
0.580548 0
0.45593 0
0.848452 0
0.939573 0
0.244877 0
0.718137 0
0.00288304 0
0.668722 0
0.437698 0
0.523547 0
0.308489 0
0.299608 0
0.592548 0
0.639166 0
0.0697954 0
0.149584 0
0.540331 0
0.422927 0
0.271341 0
0.847712 0
0.0253709 0
0.338897 0
0.110641 0
0.799981 0
0.839255 0
0.348122 0
0.561762 0
0.818059 0
0.981514 0
0.0398624 0
0.592387 0
0.562062 0
0.495792 0
0.440839 0
0.501634 0
0.740669 0
0.158976 0
0.504517 0
0.409392 0
0.596673 0
0.0280649 0
0.717881 0
0.896282 0
0.620613 0
0.357047 0
0.966077 0
0.770196 0
0.897379 0
0.389004 0
0.0415377 0
0.74509 0
0.414374 0
0.380435 0
0.855731 0
0.214355 0
0.219689 0
0.203853 0
0.776117 0
0.037748 0
0.185367 0
0.815979 0
0.630135 0
0.747429 0
0.311771 0
0.0709734 0
0.249063 0
0.0524407 0
0.229949 0
0.75358 0
0.461832 0
0.826622 0
0.781645 0
0.179713 0
0.722904 0
0.402258 0
0.536761 0
0.688981 0
0.172455 0
0.434139 0
0.0779846 0
0.213992 0
0.17923 0
0.492359 0
0.594427 0
0.0349611 0
0.706714 0
0.814116 0
0.238814 0
0.482831 0
0.851864 0
0.424181 0
0.29881 0
0.481999 0
0.171609 0
0.610582 0
0.552972 0
0.420672 0
0.663023 0
0.782921 0
0.174253 0
0.124855 0
0.609544 0
0.955898 0
0.304568 0
0.332448 0
0.358156 0
0.841329 0
0.0214289 0
0.530611 0
0.275468 0
0.0994135 0
0.744603 0
0.454698 0
0.591773 0
0.33903 0
0.489659 0
0.298487 0
0.153146 0
0.728473 0
0.781318 0
0.00501041 0
0.152654 0
0.0801281 0
0.487009 0
0.324263 0
0.69071 0
0.039982 0
0.744936 0
0.353733 0
0.822903 0
0.919188 0
0.478588 0
0.432447 0
0.875086 0
0.783156 0
0.764895 0
0.233243 0
0.624485 0
0.786324 0
0.763853 0
0.899954 0
0.885738 0
-459.049 -1.50845e-182
-69.2884 -7.67577e-184
-84.3006 -1.16751e-183
-78.3462 -1.624e-183
-99.5731 -1.71259e-183
-70.3675 -2.15941e-183
-165.406 -4.07013e-183
-137.103 -2.64991e-183
-87.0986 1.51889e-182
-95.5967 -2.16865e-183
-39.28 -3.18802e-184
-432.88 -1.32804e-182
-86.4375 -1.82199e-183
-94.9723 -1.28223e-183
-122.16 -2.04616e-183
-73.7794 -3.74938e-183
-1054.7 -7.73132e-90
-148.155 3.31921e-90
-200.836 2.13445e-91
-174.074 -4.66178e-91
-224.177 2.80356e-91
-147.845 -4.10441e-90
-366.966 -3.77097e-90
-296.945 6.76824e-91
-70.3494 1.82172e-88
-215.183 -4.05982e-90
-74.4121 1.78955e-90
-969.189 -2.0134e-89
-188.176 -2.73702e-90
-206.711 4.12143e-91
-268.467 2.74588e-90
-148.941 -1.66406e-90
-591.807 -2.34901e-47
-76.267 2.87786e-48
-200.398 -2.23693e-48
-42.7104 -1.57954e-49
-150.03 -1.91179e-48
-105.177 -7.10537e-48
-203.501 -8.69948e-48
-201.908 -2.80478e-48
-1157.21 1.85915e-46
-239.878 -9.41196e-48
-90.8704 2.58332e-49
-552.543 -4.0134e-47
-99.0908 -5.32748e-48
-246.071 -3.30754e-48
-229.535 -4.07568e-49
-69.5373 -5.83168e-48
-853.842 -3.6387e-47
-93.8792 4.45785e-48
-226.231 -3.46508e-48
-62.1538 -2.44713e-49
-198.969 -2.96144e-48
-126.06 -1.10064e-47
-322.095 -1.34758e-47
-257.446 -4.34472e-48
72.6216 2.87987e-46
-308.869 -1.45794e-47
-100.663 4.00154e-49
-930.108 -6.21686e-47
-184.707 -8.25242e-48
-274.373 -5.12346e-48
-239.802 -6.31372e-49
-80.1642 -9.03348e-48
-3563.99 -1.14355e-14
-439.701 -5.65166e-16
-658.57 -8.94528e-16
-486.08 -1.19352e-15
-738.859 -1.27535e-15
-477.391 -1.30611e-15
-1274.17 -2.87185e-15
-966.495 -1.9776e-15
1632.8 4.10834e-15
-822.295 -1.57977e-15
-259.54 -1.90052e-16
-3612.73 -8.94712e-15
-704.059 -1.14623e-15
-718.301 -8.77837e-16
-814.817 -1.68897e-15
-434.586 -2.42339e-15
-4859.68 -1.84865e-06
-607.95 -8.02003e-08
-831.679 -1.46931e-07
-734.999 -1.74157e-07
-961.638 -2.05394e-07
-585.986 -8.3218e-08
-1624.97 -4.03419e-07
-1247.58 -3.11107e-07
314.631 -1.66753e-06
-913.27 -2.35615e-07
-270.563 1.11812e-08
-4556.14 -1.08476e-06
-827.568 -1.13606e-07
-836.123 -1.46712e-07
-1101.66 -3.15207e-07
-586.363 -2.75369e-07
-9513.23 -0.000219506
-1203.93 -1.17332e-05
-1590.92 -1.74768e-05
-1433.14 -2.47912e-05
-1873.38 -2.53004e-05
-1124.47 -3.12981e-05
-3159.8 -5.81255e-05
-2424.95 -3.89991e-05
340.773 0.000175186
-1727.5 -3.15661e-05
-516.442 -5.14739e-06
-8944.04 -0.000189845
-1618.11 -2.56355e-05
-1590.13 -1.7141e-05
-2125.1 -3.1295e-05
-1161.96 -5.76752e-05
-11543 -0.000860688
-1472.78 -4.62861e-05
-1919.37 -6.85312e-05
-1693.61 -9.77278e-05
-2282.01 -9.9319e-05
-1393.51 -0.000125433
-3890.33 -0.000229206
-2955.92 -0.000153177
2123.58 0.000734158
-2139.79 -0.000124226
-657.778 -2.1003e-05
-11171 -0.000752116
-2056.83 -0.000102055
-1934.52 -6.71751e-05
-2513.22 -0.000121932
-1457.2 -0.000229309
-9758.89 -0.000281176
-1240.27 -1.51455e-05
-1587.14 -2.23886e-05
-1392.2 -3.19718e-05
-1915.67 -3.24563e-05
-1152.35 -4.12133e-05
-3269.31 -7.49915e-05
-2464.51 -5.00638e-05
2318.81 0.000243954
-1770.47 -4.06227e-05
-529.953 -6.93278e-06
-9546.91 -0.00024638
-1753.83 -3.34741e-05
-1587.53 -2.19422e-05
-2065.26 -3.97662e-05
-1223.63 -7.51876e-05
-6247.91 -3.87503e-75
-797.682 -1.61889e-76
-1014.66 -2.79371e-76
-886.352 -3.79785e-76
-1231.78 -4.25067e-76
-718.432 -3.4673e-76
-2075.87 -9.23403e-76
-1572.78 -6.40804e-76
1142.31 3.65946e-76
-1119.05 -5.11734e-76
-323.819 -4.75807e-78
-6077.37 -2.81284e-75
-1114.35 -3.4573e-76
-1009.76 -3.18793e-76
-1328.1 -5.70167e-76
-771.684 -7.20164e-76
-1743.08 -4.39158e-80
-232.319 -2.11021e-81
-279.668 -3.36131e-81
-230.462 -4.188e-81
-345.791 -4.99714e-81
-225.143 -4.30665e-81
-593.573 -1.05516e-80
-456.77 -7.47081e-81
361.185 5.06701e-81
-333.489 -5.9741e-81
-121.618 -3.81238e-82
-1787.33 -3.30878e-80
-333.079 -4.22827e-81
-306.596 -3.92999e-81
-373.227 -6.59799e-81
-248.831 -8.75897e-81
0.911634 0
0.0646812 0
0.648721 0
0.763843 0
0.0305396 0
0.768226 0
0.384127 0
0.713915 0
0.474482 0
0.993768 0
0.163401 0
0.0323292 0
0.750557 0
0.9845 0
0.0198873 0
0.22725 0
0.282204 0
0.568372 0
0.447328 0
0.609226 0
0.327348 0
0.558205 0
0.406872 0
0.479688 0
0.832588 0
0.978551 0
0.551165 0
0.35172 0
0.818831 0
0.933871 0
0.849097 0
0.730465 0
0.998552 0
0.497818 0
0.494308 0
0.029092 0
0.266044 0
0.878435 0
0.743007 0
0.740526 0
0.872202 0
0.906409 0
0.772855 0
0.622759 0
0.890908 0
0.792742 0
0.850008 0
0.173112 0
0.361114 0
0.297336 0
0.782339 0
0.688461 0
0.855541 0
0.18921 0
0.168149 0
0.68813 0
0.167762 0
0.719314 0
0.0398492 0
0.986593 0
0.653185 0
0.888946 0
0.717058 0
0.651738 0
0.386764 0
0.211365 0
0.68083 0
0.652807 0
0.0898 0
0.423837 0
0.393333 0
0.962002 0
0.330246 0
0.166188 0
0.584761 0
0.221154 0
0.95893 0
0.43477 0
0.394267 0
0.320044 0
0.732106 0
0.176605 0
0.00850492 0
0.587647 0
0.365816 0
0.176654 0
0.275777 0
0.533577 0
0.895968 0
0.315626 0
0.52017 0
0.549153 0
0.204572 0
0.237228 0
0.200891 0
0.591336 0
0.448593 0
0.881721 0
0.244143 0
0.538393 0
0.305558 0
0.637476 0
0.500395 0
0.635804 0
0.803663 0
0.0851564 0
0.856958 0
0.762593 0
0.519926 0
0.251225 0
0.0826364 0
0.252032 0
0.42783 0
0.0911414 0
0.839679 0
0.793646 0
0.267796 0
0.115457 0
0.327223 0
0.163764 0
0.431083 0
0.847393 0
0.712917 0
0.635655 0
0.0846209 0
0.913808 0
0.22699 0
0.533214 0
0.795528 0
0.471133 0
0.0716066 0
0.101086 0
0.108609 0
0.572002 0
0.73689 0
0.912272 0
0.657158 0
0.593848 0
0.674865 0
0.177084 0
0.845072 0
0.757501 0
0.429116 0
0.272903 0
0.848643 0
0.268796 0
0.0665486 0
0.116438 0
0.384252 0
0.393772 0
0.280202 0
0.815335 0
0.241165 0
0.993119 0
0.45099 0
0.325786 0
0.906926 0
0.67798 0
0.859 0
0.702455 0
0.149114 0
0.930606 0
0.803541 0
0.257722 0
0.502608 0
0.54043 0
0.169994 0
0.159766 0
0.134278 0
0.844859 0
0.33685 0
0.97935 0
0.602361 0
0.765966 0
0.252253 0
0.451004 0
0.0347621 0
0.318802 0
0.567442 0
0.419014 0
0.712573 0
0.847644 0
0.234349 0
0.953738 0
0.840762 0
0.685339 0
0.279524 0
0.747689 0
0.363319 0
0.138524 0
0.450143 0
0.512433 0
0.0691299 0
0.253684 0
0.770156 0
0.571738 0
0.794114 0
0.94015 0
0.731504 0
0.928392 0
0.785009 0
0.0683541 0
0.907742 0
0.38737 0
0.83432 0
0.159995 0
0.838374 0
0.869083 0
-12.104 -1.89685e-05
-3.86908 -5.17564e-06
-11.0604 -5.82487e-06
4.63857 3.2833e-06
-5.92655 -4.51246e-06
-4.05898 3.38308e-06
-1.26725 -2.4327e-06
-10.4454 -7.93807e-06
-324.102 -0.000251415
-12.2157 -5.67052e-06
-8.20153 -5.48563e-06
-3.95521 -6.82698e-07
2.49614 2.98532e-07
-19.1224 -9.82743e-06
-18.4865 -1.12917e-05
-4.91215 -7.46256e-07
-232.449 -5.64064e-05
-37.2808 -1.53907e-05
-68.934 -1.73213e-05
-9.09623 9.76351e-06
-57.1891 -1.34186e-05
-42.4128 1.00602e-05
-70.5346 -7.23408e-06
-85.8728 -2.36053e-05
-983.267 -0.000747628
-83.3384 -1.68623e-05
-44.9447 -1.63125e-05
-208.364 -2.03013e-06
-31.3898 8.87741e-07
-100.524 -2.92237e-05
-101.894 -3.3578e-05
-44.6118 -2.21913e-06
-212.503 -0.0415365
-16.2732 0.00280172
-153.498 -0.00284495
65.862 -0.00216064
-77.9403 -0.00352336
-61.2429 -0.0116556
-82.1466 -0.0138009
-119.183 -0.00552859
-1308.94 0.252251
-213.288 -0.0124046
-81.3125 -7.13726e-05
-265.227 -0.0610433
-46.3962 -0.00827005
-214.279 -0.00391947
-151.434 -0.00171025
-11.5527 -0.0129056
-357.746 -0.0639083
-27.854 0.00432189
-245.313 -0.00436944
100.427 -0.00333174
-127.289 -0.00541605
-100.824 -0.0179484
-154.078 -0.0212409
-197.544 -0.00849697
-1335.52 0.388749
-344.162 -0.0190857
-121.724 -0.000100393
-478.194 -0.0939684
-98.6188 -0.0127314
-329.03 -0.00601662
-223.868 -0.00261323
-13.9782 -0.0198655
-1401.8 -0.0639093
-119.419 0.00432161
-428.393 -0.00436974
-29.879 -0.00333157
-331.339 -0.00541628
-192.969 -0.0179483
-544.523 -0.021241
-434.153 -0.00849739
1253.65 0.388736
-578.259 -0.019086
-138.852 -0.000100681
-1560.2 -0.0939685
-326.199 -0.0127314
-470.814 -0.00601714
-380.646 -0.00261383
-60.6742 -0.0198655
-2026.45 -0.0639083
-148.165 0.00432189
-576.531 -0.00436944
-81.7467 -0.00333174
-460.477 -0.00541605
-253.817 -0.0179484
-781.141 -0.0212409
-572.707 -0.00849697
3005.52 0.388749
-787.476 -0.0190857
-152.625 -0.000100393
-2233.37 -0.0939684
-468.594 -0.0127314
-596.104 -0.00601662
-482.182 -0.00261323
-56.1328 -0.0198655
-2536.64 -0.0440157
-185.271 0.00298194
-674.804 -0.00300564
-137.403 -0.0022982
-564.169 -0.00372781
-320.801 -0.0123688
-950.947 -0.0146325
-695.851 -0.00584767
3226.12 0.268046
-926.745 -0.0131449
-178.103 -6.46482e-05
-2765.3 -0.0647415
-566.927 -0.00877186
-683.727 -0.00413721
-585.89 -0.00179115
-107.948 -0.0136862
-4061.19 -0.0266367
-416.727 0.00181283
-1027.68 -0.00181311
-306.959 -0.00139625
-919.76 -0.00225221
-601.095 -0.00749631
-1505.68 -0.00885998
-1204.41 -0.00353186
836.083 0.162681
-1405.77 -0.00795483
-420.907 -3.214e-05
-4350.93 -0.039214
-862.82 -0.00531362
-1205.78 -0.0024934
-1087.36 -0.00107048
-361.368 -0.00828899
-8300.1 -0.0263666
-829.648 0.00180085
-1702.14 -0.00179023
-875.339 -0.00138633
-1711.1 -0.0022265
-982.376 -0.00742894
-2924.35 -0.00877398
-2136.73 -0.00349068
4645.06 0.161395
-2214.06 -0.00787417
-542.11 -2.6403e-05
-8446.5 -0.0388433
-1602.3 -0.00526379
-1816.93 -0.00246014
-1843.53 -0.0010492
-669.216 -0.00821006
-14595.3 -0.0108064
-1511.26 0.000737117
-2642.77 -0.000733828
-1783.06 -0.000568549
-2867.73 -0.000912762
-1569.15 -0.00304272
-4941.48 -0.00359504
-3538.37 -0.00143097
7584.46 0.0660874
-3214.68 -0.00322576
-694.336 -1.07605e-05
-14332.8 -0.0159123
-2636.08 -0.00215618
-2580.93 -0.00100817
-2991.46 -0.000431141
-1292.32 -0.0033635
-20362.7 -0.00047112
-2216.34 -2.52807e-05
-3539.49 -3.75117e-05
-2578.79 -5.33907e-05
-3963.3 -5.43421e-05
-2156.42 -6.81223e-05
-6850.47 -0.000125206
-4927.67 -8.37942e-05
8869.2 0.000392508
-4200.96 -6.79085e-05
-958.631 -1.13346e-05
-19899.5 -0.000410161
-3637.65 -5.55585e-05
-3456.41 -3.67773e-05
-4141.86 -6.68966e-05
-1943.54 -0.000124892
-20375.3 -0.00085395
-2157.37 -4.59236e-05
-3452.72 -6.79946e-05
-2507.57 -9.69624e-05
-3910.05 -9.85414e-05
-2065.46 -0.000124449
-6870.36 -0.000227411
-4807.59 -0.000151978
12699.8 0.000728389
-4131.15 -0.000123253
-860.219 -2.08382e-05
-20218.1 -0.000746224
-3704.85 -0.000101256
-3295.66 -6.66492e-05
-3922.8 -0.000120978
-1859.76 -0.000227512
-15476.4 -0.000281166
-1415.62 -1.51448e-05
-2469.87 -2.23877e-05
-1780.58 -3.19707e-05
-2882.71 -3.24551e-05
-1292.47 -4.1213e-05
-5336.98 -7.49893e-05
-3352.63 -5.0062e-05
22808.8 0.000243971
-3105.41 -4.06216e-05
-340.935 -6.93282e-06
-15945.1 -0.000246374
-3025.7 -3.34736e-05
-2110.28 -2.19414e-05
-2418.51 -3.97642e-05
-959.474 -7.51861e-05
-11401.1 -9.1177e-08
-824.851 1.07175e-09
-1610.55 -8.61839e-09
-1280.16 -4.07822e-09
-2002.19 -9.66931e-09
-672.027 -2.27704e-08
-3983.38 -2.90152e-08
-2138.48 -1.55325e-08
28776.5 3.50349e-07
-2118.74 -2.56693e-08
107.997 -4.04917e-09
-12070.9 -1.22012e-07
-2349.2 -1.67927e-08
-1062.48 -1.22907e-08
-1225.98 -9.132e-09
-319.9 -2.88925e-08
-4718.47 -1.48619e-07
-176.791 1.75223e-09
-609.752 -1.40476e-08
-402.095 -6.63928e-09
-745.517 -1.57601e-08
-106.124 -3.71144e-08
-1678.76 -4.72937e-08
-686.814 -2.53174e-08
18102.1 5.70998e-07
-902.503 -4.18481e-08
210.221 -6.59766e-09
-5270.09 -1.98892e-07
-1045.35 -2.73699e-08
-255.647 -2.00366e-08
-193.777 -1.48848e-08
130.722 -4.70919e-08
-1107.67 -3.48471e-08
-2.73773 4.10144e-10
-165.086 -3.29384e-09
-36.8062 -1.55783e-09
-146.797 -3.69544e-09
33.451 -8.70252e-09
-377.276 -1.10893e-08
-108.227 -5.93633e-09
4774.41 1.33893e-07
-240.252 -9.81132e-09
81.4797 -1.54731e-09
-1235.7 -4.66331e-08
-236.145 -6.4178e-09
-47.813 -4.69768e-09
11.0972 -3.49014e-09
109.383 -1.10422e-08
-107.952 -2.4252e-10
14.3542 2.11235e-12
-2.46363 -2.29879e-11
6.72617 -1.20011e-11
17.9804 -2.58455e-11
38.8557 -6.07778e-11
-4.86944 -7.73349e-11
33.151 -4.14056e-11
644.642 9.42111e-10
13.2874 -6.73029e-11
38.8093 -1.1121e-11
-85.1962 -3.22843e-10
5.07834 -4.49779e-11
39.1713 -3.23224e-11
43.036 -2.43477e-11
40.4643 -7.72823e-11
0.208914 0
0.422595 0
0.0357429 0
0.522265 0
0.879884 0
0.927301 0
0.190738 0
0.11229 0
0.545419 0
0.070854 0
0.734312 0
0.553292 0
0.444998 0
0.689971 0
0.689171 0
0.0298743 0
0.121923 0
0.116443 0
0.939446 0
0.615933 0
0.929666 0
0.978405 0
0.637 0
0.756261 0
0.876158 0
0.948812 0
0.971195 0
0.0991146 0
0.719068 0
0.887893 0
0.48571 0
0.927982 0
0.310488 0
0.521453 0
0.450247 0
0.190371 0
0.448754 0
0.640985 0
0.302661 0
0.994173 0
0.711839 0
0.0369734 0
0.547465 0
0.156837 0
0.726945 0
0.236636 0
0.186712 0
0.848868 0
0.353078 0
0.126158 0
0.464801 0
0.282744 0
0.104563 0
0.101801 0
0.0390052 0
0.980721 0
0.0506136 0
0.0101999 0
0.0798359 0
0.769682 0
0.898093 0
0.565546 0
0.697664 0
0.208581 0
0.0869994 0
0.147911 0
0.398952 0
0.535753 0
0.788896 0
0.701613 0
0.529927 0
0.500735 0
0.738587 0
0.0773915 0
0.657572 0
0.465531 0
0.314027 0
0.844284 0
0.314399 0
0.667105 0
0.970442 0
0.7792 0
0.949849 0
0.0750048 0
0.881001 0
0.988855 0
0.0557262 0
0.931614 0
0.999054 0
0.135562 0
0.701296 0
0.897147 0
0.701108 0
0.39896 0
0.105728 0
0.788108 0
0.546871 0
0.50468 0
0.323861 0
0.335767 0
0.206293 0
0.853788 0
0.836502 0
0.94488 0
0.931179 0
0.494074 0
0.410411 0
0.245206 0
0.338358 0
0.72481 0
0.912311 0
0.3088 0
0.504009 0
0.862161 0
0.383804 0
0.38501 0
0.851015 0
0.439531 0
0.316625 0
0.85007 0
0.575093 0
0.017921 0
0.747217 0
0.276201 0
0.416881 0
0.852945 0
0.0643088 0
0.963752 0
0.357625 0
0.38817 0
0.299519 0
0.563919 0
0.241958 0
0.136021 0
0.508799 0
0.173137 0
0.630095 0
0.919209 0
0.418343 0
0.968453 0
0.644019 0
0.330654 0
0.277253 0
0.148028 0
75.7891 6.15075e-179
19.8832 9.86654e-180
13.9695 8.40417e-180
11.6729 5.33151e-180
26.1014 1.16993e-179
25.0739 1.98875e-179
43.9639 2.35268e-179
37.4516 1.85276e-179
-62.2432 -8.0028e-179
26.0695 1.45936e-179
19.1859 1.06534e-179
139.857 9.75848e-179
32.25 1.58946e-179
26.0644 1.28642e-179
26.2891 1.36089e-179
31.7471 3.35839e-179
90.7971 -1.89685e-05
46.0375 -5.17564e-06
-14.9208 -5.82487e-06
51.1616 3.2833e-06
34.4178 -4.51246e-06
39.4866 3.38308e-06
65.1928 -2.4327e-06
53.2093 -7.93807e-06
-331.471 -0.000251415
-17.5985 -5.67052e-06
18.7291 -5.48563e-06
185.318 -6.82698e-07
50.6957 2.98532e-07
-6.87192 -9.82743e-06
21.7783 -1.12917e-05
75.614 -7.46256e-07
-366.577 -0.000109319
-38.6177 -2.9828e-05
-149.931 -3.35697e-05
33.1522 1.89222e-05
-97.159 -2.6006e-05
-62.7104 1.94972e-05
-107.311 -1.402e-05
-136.972 -4.57484e-05
-1914.8 -0.00144894
-201.395 -3.26801e-05
-87.0836 -3.16146e-05
-350.644 -3.9345e-06
-46.3995 1.72049e-06
-219.62 -5.6637e-05
-182.662 -6.5076e-05
-35.7744 -4.30079e-06
-973.51 -0.000125791
-160.203 -3.43227e-05
-303.361 -3.86281e-05
-26.3647 2.17735e-05
-238.984 -2.99247e-05
-192.989 2.24351e-05
-310.56 -1.61326e-05
-371.832 -5.2642e-05
-3576.73 -0.00166728
-368.04 -3.76045e-05
-199.104 -3.63784e-05
-922.706 -4.52737e-06
-147.339 1.97974e-06
-437.287 -6.51714e-05
-418.983 -7.4882e-05
-190.748 -4.94886e-06
-467.988 -0.0413079
-100.581 0.00277844
-355.78 -0.0028348
114.516 -0.00214355
-200.318 -0.0035075
-185.829 -0.0115809
-146.868 -0.0137203
-339.453 -0.00550475
-5594.48 0.250417
-474.62 -0.0123363
-256.57 -7.76173e-05
-420.188 -0.0606741
-42.9054 -0.00821956
-581.036 -0.00390767
-467.328 -0.00171362
-98.2671 -0.0128283
-302.86 -0.0636567
-17.1421 0.00430487
-435.373 -0.00435223
170.087 -0.00331863
-239.285 -0.00539472
-169.398 -0.0178778
-175.23 -0.0211573
-347.467 -0.00846351
-2045.17 0.387218
-666.597 -0.0190106
-208.357 -9.99968e-05
-339.312 -0.0935985
-117.47 -0.0126813
-603.707 -0.00599293
-408.581 -0.00260294
115.01 -0.0197873
-2031.59 -0.0636572
-219.73 0.00430473
-825.744 -0.00435239
-85.5131 -0.00331854
-692.181 -0.00539484
-441.892 -0.0178777
-983.506 -0.0211573
-937.767 -0.00846372
6908.64 0.387212
-1215.48 -0.0190107
-240.826 -0.000100141
-2338.12 -0.0935985
-694.037 -0.0126812
-856.813 -0.00599319
-683.834 -0.00260324
46.8651 -0.0197873
-4274.67 -0.0618989
-542.356 0.00418481
-1356.45 -0.00423288
-306.86 -0.00322621
-1208.33 -0.00524629
-983.831 -0.0173825
-1790.73 -0.0205723
-1718.65 -0.0082308
3877.33 0.376459
-1910.83 -0.0184857
-585.429 -9.82368e-05
-4881.11 -0.0910089
-1174 -0.0123303
-1526.87 -0.00582892
-1394.51 -0.002533
-543.625 -0.0192399
-7408.12 -0.0572353
-1027.89 0.00353735
-2103.15 -0.00411563
-675.62 -0.00280918
-1879.7 -0.00495472
-1746.84 -0.0157476
-2642.53 -0.0188535
-2784.64 -0.00781825
-10526.6 0.329528
-2768 -0.0170224
-1120.64 -0.000355428
-7515.94 -0.0830748
-1506.83 -0.0112186
-2563.62 -0.00571614
-2601.46 -0.00274613
-1496.43 -0.0176919
-9026.21 -0.0670194
-1239.26 0.00271874
-2770.99 -0.00568098
-903.491 -0.0025475
-2310.62 -0.00624268
-1985.21 -0.0170547
-3138.12 -0.0213554
-3352.64 -0.010039
-18737.9 0.306325
-3342.27 -0.0196249
-1289.4 -0.00154874
-8393.68 -0.0926838
-1630.8 -0.0123553
-3227.25 -0.00808532
-3377.48 -0.00493649
-1703.24 -0.0203069
-15115.6 -0.0675933
-1996.79 0.00256819
-4057.25 -0.00581161
-1884.9 -0.00253514
-3622.29 -0.00634326
-2506 -0.0171013
-5213.83 -0.0214936
-4928.08 -0.0102472
-18117.9 0.30196
-4490.58 -0.0197196
-1434.29 -0.00166904
-13638.3 -0.0930559
-2696.89 -0.0124096
-4205.53 -0.00826015
-4830.82 -0.00514265
-2289.51 -0.0205011
-25190.8 3.63882
-3311.73 0.443008
-5747.92 0.371669
-3143.28 0.23686
-5742.37 0.519711
-3911.32 0.739024
-8952.54 0.977346
-7788.17 0.83799
-7296.75 0.586331
-6757.56 0.626301
-2201.51 0.463766
-24639.5 3.91761
-5013.41 0.607991
-6107.12 0.544856
-6944.32 0.695061
-3678.23 1.4166
-30939.6 17.4615
-4051.81 2.08563
-6563.68 1.77705
-3959.4 1.1332
-6862.53 2.48151
-4504.27 3.56239
-10917.6 4.70366
-9224 4.00101
-3783.5 1.50618
-7688.52 3.03288
-2483.55 2.19861
-30367.4 18.8819
-6170.14 2.92404
-6908.19 2.60356
-8073.71 3.30388
-4440.3 6.78032
-28078.1 19.5408
-3527.19 2.32617
-5668.8 1.98722
-3426.42 1.26777
-5872.68 2.77459
-3904.26 3.98998
-9491.72 5.26653
-7982.38 4.47348
-11458 1.42059
-6464.51 3.39915
-2070.97 2.45513
-26913 21.1469
-5124.09 3.27367
-5895.98 2.91112
-7049.17 3.69099
-4134.64 7.58465
-20273.7 1.06878
-2359.2 0.127191
-3976.75 0.10874
-2384.22 0.0691272
-4062.74 0.151771
-2599.86 0.217976
-6705.91 0.287857
-5521.29 0.244545
-4204.17 0.087951
-4563.9 0.186054
-1295.04 0.134406
-18832.9 1.15619
-3590.47 0.17888
-4039.03 0.159443
-4772.72 0.202009
-2623.32 0.414581
-12473.1 -0.00136888
-1372.14 -3.43148e-05
-2515.39 -6.58921e-05
-1480.16 -0.0002638
-2635.86 -0.000131124
-1581.11 -0.000571949
-4231.27 -0.00059535
-3455.14 -0.000344107
2916.66 0.0143197
-3123.53 -0.000225614
-806.854 4.28672e-05
-11566.8 -0.00221897
-2407.25 -0.000411057
-2602.65 3.59382e-05
-2954.63 -1.32137e-05
-1390.44 -0.000694632
-4539.84 -0.000876132
-476.874 -2.11391e-05
-914.139 -4.15211e-05
-786.517 -0.0001697
-1112.53 -8.37456e-05
-599.754 -0.000367365
-1422.19 -0.000381509
-1333.67 -0.00021981
881.536 0.00922159
-1253.39 -0.000144394
-272.816 2.82059e-05
-3409.54 -0.00142327
-866.271 -0.000263664
-954.692 2.42906e-05
-1290.55 -7.38127e-06
-388.15 -0.000445366
-468.405 0.0360205
-109.383 0.00694597
-111.231 0.00666918
-282.835 0.0067011
-255.016 0.00784048
-168.518 0.0178814
15.1556 0.0176774
-275.04 0.0125224
-6046.24 -0.146466
-264.657 0.0102251
-176.001 0.00814731
348.487 0.0549442
23.6728 0.0119008
-317.466 0.00801485
-501.556 0.00608624
-92.8052 0.0262859
543.244 0.0309898
-57.6701 0.00596531
150.983 0.00572911
-182.922 0.00576565
-22.9788 0.00673782
-35.4105 0.0153791
286.847 0.0152049
-5.24906 0.0107674
-4221.83 -0.126412
118.522 0.00878954
-74.3027 0.00699323
1100.59 0.0472765
175.51 0.0102368
7.33531 0.00687978
-152.644 0.00522624
-18.1915 0.0226008
268.28 1.91364e-25
-40.2045 2.09243e-26
63.0828 2.29664e-26
-87.4861 7.26804e-27
-20.0344 2.43442e-26
-1.20675 2.1252e-26
106.994 4.82809e-26
-14.9401 4.32959e-26
-1460.22 3.80841e-25
62.6611 3.14303e-26
-39.7027 1.79036e-26
460.325 1.60077e-25
40.245 2.30639e-26
11.218 3.02706e-26
-77.2578 4.13449e-26
-23.8029 5.30903e-26
-9.7339 3.08486e-65
-22.207 7.16506e-66
-1.0914 1.32539e-65
-27.5862 -5.08253e-67
-21.1768 6.25046e-66
12.4749 2.92699e-65
-17.8262 1.04201e-65
-22.5012 1.41885e-65
-301.553 -3.0007e-65
6.95248 1.64289e-65
-18.6265 1.0886e-65
20.9291 6.5762e-65
-22.424 2.15334e-66
-24.4098 1.13166e-65
-43.625 5.1076e-66
-18.3129 2.76906e-65
0.666392 0
0.804157 0
0.395373 0
0.800503 0
0.398547 0
0.682138 0
0.353818 0
0.929524 0
0.117227 0
0.523057 0
0.0260565 0
0.0879036 0
0.0494912 0
0.0846466 0
0.733328 0
0.823918 0
0.599119 0
0.489506 0
0.617582 0
0.539458 0
0.483587 0
0.271687 0
0.797213 0
0.405706 0
0.506561 0
0.0193694 0
0.053267 0
0.818293 0
0.692295 0
0.0729677 0
0.788581 0
0.358687 0
0.877124 0
0.183954 0
0.15919 0
0.275672 0
0.866092 0
0.513008 0
0.205196 0
0.983319 0
0.0360645 0
0.231252 0
0.0712225 0
0.0855557 0
0.315899 0
0.80455 0
0.909473 0
0.915018 0
0.294056 0
0.527055 0
0.454476 0
0.777643 0
0.798742 0
0.251689 0
0.183349 0
0.305303 0
0.271058 0
0.236616 0
0.123596 0
0.963353 0
0.309584 0
0.912177 0
0.32204 0
0.186708 0
0.0961307 0
0.48123 0
0.46238 0
0.962222 0
0.994238 0
0.667576 0
0.945541 0
0.0303026 0
0.898828 0
0.0167638 0
0.115858 0
0.214727 0
0.821314 0
0.0253318 0
0.129744 0
0.11537 0
0.552387 0
0.58422 0
0.893013 0
0.351129 0
0.835909 0
0.0763617 0
0.656432 0
0.106967 0
0.312978 0
0.780028 0
0.0703204 0
0.622562 0
0.692205 0
0.39236 0
0.80927 0
0.788336 0
35.664 3.05782e-119
5.89132 3.70002e-120
4.37274 3.16792e-120
5.72456 1.62664e-120
9.67997 4.34798e-120
8.31421 5.78378e-120
14.8101 7.9907e-120
12.2635 7.01316e-120
39.6249 1.16912e-119
9.01283 5.27112e-120
6.43742 3.85617e-120
49.1641 3.15345e-119
9.02403 4.91985e-120
9.9546 5.12436e-120
10.9712 5.93695e-120
11.0046 1.07949e-119
416.234 5.87776e-119
92.3327 7.11588e-120
54.7932 6.09147e-120
65.8164 3.12405e-120
132.028 8.35982e-120
118.688 1.11127e-119
218.985 1.53562e-119
175.114 1.34815e-119
-130.045 2.27759e-119
123.976 1.01327e-119
91.5941 7.41764e-120
742.935 6.06023e-119
155.858 9.45386e-120
128.368 9.85586e-120
131.308 1.14185e-119
159.139 2.07487e-119
249.816 -9.53686e-05
97.8232 -2.60158e-05
-90.3613 -2.92795e-05
147.375 1.64986e-05
68.5037 -2.2684e-05
81.5149 1.69947e-05
168.163 -1.22383e-05
89.4784 -3.99061e-05
-1635.22 -0.00126348
-91.4264 -2.85063e-05
17.308 -2.75728e-05
555.815 -3.47087e-06
133.133 1.49335e-06
-83.9144 -4.93964e-05
-5.50627 -5.67574e-05
184.286 -3.76366e-06
-1022.52 -0.00012584
-212.89 -3.43253e-05
-499.643 -3.86314e-05
20.0389 2.17656e-05
-363.114 -2.99301e-05
-307.037 2.24176e-05
-397.943 -1.61521e-05
-578.846 -5.26544e-05
-4367.56 -0.0016669
-660.669 -3.76127e-05
-333.882 -3.63788e-05
-963.248 -4.59861e-06
-225.693 1.96679e-06
-732.172 -6.51725e-05
-633.438 -7.4885e-05
-175.141 -4.97188e-06
-1317.69 -0.000119459
-380.44 -3.25606e-05
-755.238 -3.66462e-05
32.1713 2.06246e-05
-501.733 -2.83983e-05
-516.777 2.12206e-05
-549.483 -1.53637e-05
-942.716 -4.99667e-05
-7515.66 -0.00158003
-889.315 -3.56912e-05
-528.694 -3.45031e-05
-1120.25 -4.52564e-06
-292.337 1.83546e-06
-1068.73 -6.18132e-05
-988.058 -7.10287e-05
-368.959 -4.76849e-06
555.137 -0.0146545
-50.4491 0.000970226
-562.107 -0.0010165
274.231 -0.000750274
-135.945 -0.00125128
-233.532 -0.00408768
58.9341 -0.00485821
-480.887 -0.00196585
-5894.26 0.0879628
-638.205 -0.00437644
-300.922 -4.05712e-05
1151.73 -0.0214599
113.715 -0.00290627
-708.304 -0.00140549
-581.368 -0.000633059
184.954 -0.00453874
723.097 -0.0223765
-72.7262 0.00151893
-806.638 -0.00152588
253.636 -0.00117037
-280.403 -0.00189378
-377.996 -0.00629211
-105.264 -0.00744062
-739.752 -0.00297032
673.369 0.13644
-956.504 -0.00668254
-284.014 -3.03215e-05
1358.45 -0.0329257
-80.0793 -0.00446133
-789.205 -0.00209949
-627.539 -0.000905677
337.616 -0.0069602
-2920.01 -0.0555855
-579.033 0.00376518
-1825.55 -0.00379517
-119.147 -0.00290106
-1285.33 -0.00470815
-1165.04 -0.0156121
-1581.43 -0.0184773
-2154.98 -0.00738488
7037.3 0.338393
-2336.93 -0.0165988
-674.757 -8.14554e-05
-2556.64 -0.0817441
-1143.7 -0.011077
-1797.92 -0.00522616
-1680.91 -0.00226548
-205.686 -0.0172776
-5210.77 -0.0528111
-1231.66 0.00358155
-2888.58 -0.00359624
-505.181 -0.00275843
-2362.36 -0.00447167
-1938.72 -0.0148059
-2750.12 -0.0175547
-3596 -0.00701145
6552 0.321526
-3679.53 -0.0157601
-1292.97 -6.80556e-05
-5226.83 -0.0776257
-2220.13 -0.0105283
-3081.98 -0.00495925
-2977.4 -0.00215537
-1012.57 -0.0163938
-5769.06 -0.0135085
-1849.34 0.000233976
-3626.93 -0.00128788
-983.067 -0.000383137
-2961.7 -0.0013533
-2497.08 -0.00301551
-3044.43 -0.00416028
-4597.13 -0.00222233
-14281.5 0.0449159
-4104.25 -0.00381444
-1830.85 -0.000513211
-4775.32 -0.0174808
-2273.7 -0.00235499
-4059.36 -0.00189144
-4330.49 -0.00139373
-1952.53 -0.00392543
-9073.17 -0.0397717
-2809.53 0.000696844
-4873.12 -0.00380969
-2179.85 -0.00117575
-4206.74 -0.00397197
-2983.2 -0.00913941
-4394.17 -0.0123007
-6248.5 -0.00655083
-32746.5 0.135856
-4796.08 -0.0112667
-2280.07 -0.00151812
-6178.77 -0.0519502
-2859.18 -0.00695924
-5297.68 -0.00551821
-6418.09 -0.00399415
-2873.46 -0.0117678
-20063.4 0.810297
-4742.62 0.106501
-6886.62 0.0835028
-4298.48 0.0541952
-7001.21 0.118155
-4655.48 0.162465
-8361.33 0.215178
-9936.54 0.190397
-48922.2 0.353978
-7119.27 0.133596
-3663.8 0.108417
-16493.5 0.858253
-5185.42 0.134597
-8056.15 0.122585
-10209.9 0.160292
-5229.43 0.32001
-32166.8 15.0144
-6358.28 1.79522
-8446.99 1.52746
-6014.63 0.975846
-9408.11 2.13432
-6453.51 3.0639
-12307.7 4.04423
-13176.3 3.44104
-57206.1 1.30409
-9327.64 2.60568
-4845.23 1.89151
-28838.8 16.2348
-7415.15 2.51475
-10353.9 2.23773
-13161.8 2.84136
-7569.27 5.83264
-30743.1 24.6021
-5692.34 2.94819
-7725.26 2.55373
-5603.4 1.58466
-8719.71 3.50123
-5687.32 5.15867
-11628.2 6.64004
-12006.1 5.66839
-45046.9 1.47667
-8571.71 4.33638
-4177.08 3.13069
-27512.6 26.8154
-7091.31 4.10468
-9262.18 3.69739
-11905 4.63558
-6807.9 9.64839
-22264.5 25.0895
-4271.97 3.05787
-5716.17 2.76798
-4285.19 1.5658
-6463.41 3.59232
-3916.59 5.64872
-8243.17 6.79717
-8826.19 5.88756
-46418.3 0.98302
-6034.2 4.60684
-3127.77 3.30916
-18363.6 27.8951
-4979.33 4.12687
-7031.09 3.8825
-9199.04 4.69965
-5241.06 10.1117
-15825.8 11.9048
-3338.15 1.48322
-4265.89 1.4268
-3270.14 0.709176
-4676.04 1.71862
-3037.37 2.95739
-5466.15 3.24503
-6754.49 2.8666
-51629 -0.102262
-4253.57 2.3172
-2622.02 1.64931
-10465.3 13.6344
-3156.2 1.91819
-5520.28 1.91771
-7411.71 2.20589
-4191.46 4.99063
-10523.1 0.320531
-2331.28 0.0710007
-2845.41 0.141177
-2264.5 -0.0112413
-3059.29 0.0595666
-2120.87 0.329221
-3322.33 0.104569
-4633.39 0.144043
-47710.4 -0.452684
-2749.06 0.179641
-2005.8 0.117151
-5476.57 0.722925
-1734.3 0.0151303
-4000.79 0.120284
-5385.76 0.0391266
-3046.64 0.309318
-4395.19 0.0362431
-1619.7 0.00667832
-1828.51 0.00648401
-1371.63 0.0056989
-1988.61 0.0074538
-1455.54 0.0154161
-1504.41 0.0162196
-3134.28 0.0119044
-38995.2 -0.0939544
-1897.05 0.00965412
-1698.44 0.00769418
-806.018 0.0503284
-922.813 0.0105618
-3051.15 0.00803605
-3916.74 0.0067124
-1926.92 0.0237676
3180.78 0.0517496
-317.154 0.00966248
-156.142 0.00934996
-543.44 0.00858235
-231.876 0.0108245
-63.2739 0.023107
1112.06 0.0238234
-393.337 0.0172913
-23551.4 -0.157097
40.2232 0.0140503
-539.829 0.0111917
6199.42 0.0739737
587.235 0.0156805
-743.538 0.0114769
-1286.75 0.00932895
-73.0695 0.0350713
10186.4 0.00106925
1072.06 0.000102261
1476.28 0.000117144
182.37 4.19284e-05
1556.91 0.000126456
1697.93 0.00011227
3618.83 0.000264005
2527.48 0.000218593
-5964.2 0.00215886
2264.02 0.000169292
1030.65 8.88322e-05
13734.3 0.000900267
2202.35 0.000124051
1931.08 0.000154895
1594.54 0.000212604
2106.41 0.00030852
7512.66 1.70714e-05
824.354 -5.97707e-08
1161.8 4.49287e-07
173.79 1.98052e-06
1214.77 1.12143e-06
1290.38 3.94554e-06
2706.46 5.20031e-06
1965.87 2.00666e-06
-2282.8 -6.86922e-05
1808.91 2.20157e-06
858.385 -3.31454e-07
10102.2 2.09327e-05
1640.81 3.03412e-06
1626.1 -1.33015e-07
1338.26 4.08865e-07
1520.83 6.30269e-06
5662.9 1.77787e-53
721.745 1.99161e-54
876.881 2.13622e-54
278.072 6.63233e-55
997.751 2.30395e-54
1011.14 1.99844e-54
2007.88 4.54174e-54
1598.81 4.0858e-54
2675.72 3.65218e-53
1316.34 2.94668e-54
738.938 1.72611e-54
7297.96 1.51143e-53
1217.46 2.17046e-54
1309.03 2.86293e-54
1248.17 3.91086e-54
1299.86 5.03499e-54
2012.53 7.52981e-54
313.804 8.43507e-55
328.193 9.04752e-55
179.97 2.80899e-55
437.855 9.75789e-55
423.563 8.46399e-55
784.891 1.92356e-54
680.957 1.73046e-54
1175.61 1.54681e-53
540.919 1.24801e-54
327.16 7.31058e-55
2624.75 6.40134e-54
494.881 9.19255e-55
549.523 1.21254e-54
539.491 1.65636e-54
484.654 2.13246e-54
-33.2648 -9.97352e-179
-14.6224 -4.64012e-179
-1.95819 -3.92586e-179
-14.7832 1.87914e-179
-9.3021 -2.52683e-179
5.69434 1.86384e-179
-9.61365 -7.93809e-180
-13.1017 -4.70735e-179
-495.302 -2.3411e-177
9.11851 -1.95544e-179
-12.3681 -4.38079e-179
-2.20736 2.13211e-179
-4.27152 8.23276e-180
-19.1458 -6.43483e-179
-29.7393 -6.94042e-179
-20.5464 -1.99699e-179
0.0233124 0
0.492991 0
0.215856 0
0.946639 0
0.781768 0
0.91164 0
0.265182 0
0.74958 0
0.499963 0
0.518399 0
0.862057 0
0.732322 0
0.964472 0
0.506694 0
0.638404 0
0.598578 0
0.151869 0
0.199519 0
0.711244 0
0.187697 0
0.0739936 0
0.444622 0
0.341268 0
0.297399 0
0.0875342 0
0.0273908 0
0.98102 0
0.455471 0
0.253976 0
0.0171895 0
0.95592 0
0.277289 0
0.510181 0
0.171777 0
0.223928 0
0.291948 0
0.0834161 0
0.48911 0
0.0415286 0
0.58338 0
0.00750823 0
0.903585 0
0.315701 0
0.97198 0
0.41028 0
0.954106 0
0.570558 0
0.562149 0
0.153625 0
0.281802 0
0.749846 0
0.227618 0
0.726424 0
0.0911139 0
0.525017 0
0.813958 0
0.118505 0
0.506037 0
0.269429 0
0.372481 0
0.523227 0
0.22535 0
0.649769 0
0.0334077 0
517.936 -8.45261e-101
91.7376 -3.30135e-101
64.252 -2.99704e-101
70.0042 1.20837e-101
142.002 -2.42448e-101
124.74 1.20317e-101
231.347 -1.43374e-101
186.419 -4.74166e-101
212.146 -1.28313e-99
149.365 -2.30498e-101
100.788 -3.035e-101
801.094 2.11703e-102
157.545 -1.57575e-102
154.45 -5.00712e-101
154.451 -6.05349e-101
163.563 -1.22796e-101
1082.81 -6.76803e-91
200.785 -1.66391e-91
128.557 -1.86041e-91
151.081 4.37433e-92
303.246 -1.55703e-91
278.507 -2.24478e-92
497.611 -1.59243e-91
406.117 -2.68119e-91
312.527 -5.52176e-90
303.727 -2.03948e-91
209.441 -1.85447e-91
1716.5 -3.92297e-91
336.335 -5.86356e-92
312.417 -3.06693e-91
320.927 -3.2888e-91
359.593 -1.6018e-91
268.619 -5.06437e-05
-0.632496 -1.37686e-05
-304.396 -1.54976e-05
198.02 8.68964e-06
-0.796021 -1.20187e-05
-3.99984 8.90927e-06
107.395 -6.55737e-06
-112.906 -2.11569e-05
-2275.91 -0.000666452
-262.796 -1.511e-05
-82.4374 -1.45823e-05
662.552 -2.14952e-06
68.0443 7.3257e-07
-288.36 -2.61258e-05
-172.622 -3.00263e-05
138.189 -2.09174e-06
-2147.37 -8.81146e-05
-683.304 -2.39855e-05
-1066.74 -2.69963e-05
-127.137 1.51645e-05
-787.194 -2.09285e-05
-788.009 1.55744e-05
-906.512 -1.1372e-05
-1481.88 -3.68326e-05
-11429.6 -0.00116241
-1185.6 -2.63074e-05
-811.293 -2.54095e-05
-1786.66 -3.54545e-06
-498.74 1.31296e-06
-1533.46 -4.55229e-05
-1538.61 -5.23146e-05
-700.848 -3.5803e-06
-874.067 -3.27062e-05
-491.212 -8.8671e-06
-944.927 -9.9814e-06
9.31186 5.57376e-06
-548.486 -7.7473e-06
-668.547 5.69275e-06
-573.681 -4.26586e-06
-1290.45 -1.3645e-05
-10474.2 -0.000428013
-1037.68 -9.74329e-06
-737.865 -9.3855e-06
-119.525 -1.55035e-06
-253.528 4.40929e-07
-1330.62 -1.68163e-05
-1355.61 -1.93309e-05
-357.964 -1.40006e-06
1743.38 2.91416e-06
79.6363 5.96817e-07
-487.142 1.1423e-06
305.625 -6.19802e-08
-51.7709 5.31091e-07
-220.674 2.58098e-06
85.3566 9.15227e-07
-570.015 1.2053e-06
5096.89 -2.10305e-06
-682.254 1.47188e-06
-224.448 9.63627e-07
2595.46 5.94391e-06
48.3155 1.7032e-07
-458.855 1.01287e-06
-376.909 4.19102e-07
659.702 2.51488e-06
1361.22 1.71911e-05
0.716997 3.34475e-06
-898.385 6.36165e-06
221.072 -1.50407e-07
-361.903 3.0488e-06
-390.98 1.46161e-05
-161.915 5.5027e-06
-985.873 6.92734e-06
12156.8 -2.07328e-05
-1178.83 8.29039e-06
-211.685 5.30867e-06
2636.19 3.44035e-05
-255.031 1.2494e-06
-613.914 5.59777e-06
-610.321 2.37652e-06
762.753 1.4385e-05
-1940.24 0.000159926
-1064.11 3.08255e-05
-2359.57 5.85502e-05
-368.168 -1.03324e-06
-1847.59 2.82222e-05
-1456.62 0.000134959
-1785.84 5.13685e-05
-3067.68 6.41432e-05
8826.65 -0.000206988
-2873.69 7.64621e-05
-1149.43 4.87558e-05
-1328.85 0.000318953
-1704.19 1.20362e-05
-2435.84 5.14389e-05
-2585.72 2.19465e-05
-553.438 0.000133077
-2506.61 -0.00046167
-1856.84 5.40424e-05
-3587.17 0.000103015
-712.703 -0.000165262
-2889.07 -1.29722e-05
-2159.09 -1.65448e-05
-2578.63 -0.000244061
-4544.68 -5.75912e-05
2235.21 0.00833215
-4096.07 4.77399e-05
-1867.32 0.000146871
-1890.55 -0.000585417
-2605.96 -0.000226333
-3932.74 0.000146562
-4073.12 4.17642e-05
-1326.02 -9.89246e-05
-6531.96 -0.00265105
-3252.95 -0.000579193
-5016.34 -0.000460306
-1818.52 -2.82153e-05
-4642.39 -0.00043016
-3397.85 -6.24665e-05
-4703.99 -0.000701444
-6912.49 -0.000894356
-13406.4 -0.013799
-5555.49 -0.000351497
-3014.19 -0.000390781
-7120.47 -0.00165179
-4176.68 -0.000360095
-5930.94 -0.000653666
-6492.7 -0.00088155
-3394.07 -0.000735017
-9673 -0.00514514
-4330.12 -0.00173769
-5974.41 -0.00143517
-3331.63 0.000531687
-6074.85 -0.00105558
-3699.09 0.000529806
-6298.87 -0.000856688
-8374.9 -0.00205452
-23073.7 -0.0727113
-6006.04 -0.000811742
-3334.08 -0.0014504
-9690.6 -0.00102239
-5264.64 -0.00012708
-6818.28 -0.0021869
-8228.72 -0.00259378
-4441.66 -0.00112386
-22798 12.6392
-6902.01 1.50216
-8043.59 1.28412
-5319.3 0.82073
-9503.17 1.79377
-6331.5 2.58191
-11436.5 3.40701
-12893.4 2.89193
-28689.1 0.821541
-9002.42 2.19916
-5219.32 1.58614
-26576.3 13.6819
-8899.2 2.11778
-10050.7 1.88099
-11921.1 2.38499
-8227.61 4.90507
-30925.4 24.4537
-8750.41 2.91115
-9571.62 2.48396
-5985.66 1.58887
-11922.1 3.47125
-8717.65 4.98784
-14739.4 6.58759
-16091 5.59728
-27437.5 1.83164
-11678.2 4.2484
-6963.65 3.07084
-39930.4 26.4411
-11929.5 4.09325
-12758.5 3.63883
-14234.3 4.61957
-11664.7 9.48607
-24443.5 24.9069
-8006.46 3.01315
-8335.84 2.69042
-4640.5 1.56985
-10438.7 3.55472
-8197.57 5.46174
-12054.6 6.73138
-14221.2 5.80544
-42357 1.36242
-10372.5 4.50756
-6948.46 3.23997
-34253.7 27.4506
-10542 4.10366
-12013.3 3.81251
-12828.3 4.6763
-11728 9.92325
-13167.6 25.083
-5803.45 3.05108
-5753.32 2.76451
-3077 1.55898
-7314.61 3.58462
-5589.85 5.60495
-7254.18 6.7776
-9783.06 5.88123
-42051.1 1.73564
-6961.02 4.59606
-5216.72 3.29906
-19625.8 27.7519
-7311.25 4.09831
-8763.71 3.87877
-9245.62 4.70889
-8810.08 10.0569
-8450.64 11.9174
-4495.37 1.48075
-4361.4 1.42677
-2433.44 0.703533
-5350.96 1.71478
-4383.11 2.92114
-4452.75 3.23245
-7612.27 2.86617
-53035.9 0.640179
-5040.13 2.31068
-4332.39 1.6434
-9789.92 13.5244
-4710.63 1.89556
-6985.14 1.91856
-7787.44 2.21913
-6792.65 4.94928
-2245.49 0.66955
-3110.77 0.142625
-2981.59 0.284061
-1688.38 -0.0231316
-3235.4 0.120326
-2814.13 0.646273
-1229.74 0.210838
-5055.39 0.292452
-68486.2 -0.619947
-2829.85 0.360131
-3250.24 0.233028
1286.43 1.42434
-1782.75 0.0253903
-5095.16 0.243482
-6169.87 0.0875768
-4451.46 0.608847
297.884 0.722614
-2187.41 0.154228
-2286.65 0.294162
-1204.19 -0.0120388
-2263.29 0.133402
-1860.48 0.683423
-256.28 0.240873
-3757.09 0.311518
-56035.8 -1.03487
-2126.09 0.377182
-2448.64 0.247039
4678.61 1.54355
-788.528 0.0502412
-3907.36 0.255497
-4911.4 0.0934655
-2551.35 0.661292
11353 0.717351
141.319 0.153243
160.099 0.293201
-198.185 -0.0130027
609.179 0.132285
920.234 0.680959
3706.22 0.238346
798.571 0.309704
-31809.7 -1.01564
1196.83 0.375723
-84.4054 0.245893
17253 1.53601
1913.94 0.0486002
69.3304 0.254346
-749.382 0.0925464
1089.66 0.657648
16740.9 0.350845
1529.09 0.0740997
1897.75 0.144658
392.09 -0.00988995
2251.7 0.063306
2628.69 0.332864
5684.79 0.11241
3629.86 0.150765
-10790.6 -0.405562
3307.35 0.184587
1482.51 0.119742
22528.3 0.749293
3266.69 0.0189739
2749.42 0.124783
2114.1 0.0453001
3173.09 0.318419
12197 0.0288926
1257.23 0.00307701
1794.82 0.0034236
297.371 0.00112327
1810.09 0.00361896
2015.52 0.00315877
4197.14 0.00729971
2964.61 0.00644025
-2842.12 0.0580743
2719.35 0.00473229
1286.09 0.0026261
15901.5 0.0243022
2478.86 0.00348979
2445.1 0.00452206
2012.99 0.00614669
2484.13 0.00845964
5445.64 8.15762e-25
517.787 1.81622e-26
914.581 3.85108e-26
66.108 9.10782e-26
753.767 7.03021e-26
915.053 2.00371e-25
1840.79 2.62111e-25
1294.45 1.18979e-25
1212.04 -3.20087e-24
1210.99 1.19244e-25
529.559 8.42673e-27
7043.82 1.04385e-24
1017.94 1.56618e-25
1069.61 1.83266e-26
904.434 4.03568e-26
1172.46 3.05477e-25
1376.31 3.62546e-54
178.71 4.06133e-55
256.569 4.35621e-55
63.0098 1.35248e-55
269.564 4.69825e-55
317.699 4.07525e-55
536.443 9.2616e-55
437.954 8.33183e-55
467.531 7.44759e-54
392.876 6.00892e-55
193.718 3.51991e-55
1874.59 3.08213e-54
312.271 4.42604e-55
346.435 5.83814e-55
307.814 7.97508e-55
342.539 1.02674e-54
-85.9086 2.56225e-132
-70.8675 7.93972e-133
-38.6379 1.56288e-132
-57.0616 1.16738e-133
-48.8434 6.49384e-133
1.1903 3.7077e-132
-31.5567 1.09094e-132
-75.6671 1.50288e-132
-1704.11 -1.3609e-131
0.579747 1.84771e-132
-67.4164 1.27418e-132
33.7506 7.29843e-132
-25.2482 2.28818e-133
-99.3831 1.21894e-132
-144.693 3.31276e-133
-80.7676 3.22426e-132
-180.143 -3.65071e-173
-99.7684 -3.64815e-173
-64.3799 -2.74076e-173
-76.4547 2.04042e-173
-88.1097 -2.27602e-173
-31.1565 5.68059e-173
-73.1767 8.77876e-174
-133.618 -3.8447e-173
-2320.34 -2.04012e-171
-32.7306 -9.53347e-174
-100.425 -3.28227e-173
-50.6521 1.30776e-172
-46.4616 1.40751e-173
-154.073 -5.71448e-173
-211.549 -7.50762e-173
-122.898 2.64849e-173
0.864263 0
0.305695 0
0.834466 0
0.727774 0
0.0240774 0
0.0824469 0
0.0808577 0
0.258967 0
0.0685855 0
0.358874 0
0.0707389 0
0.127869 0
0.0349534 0
0.945453 0
0.255444 0
0.429675 0
0.821716 0
0.139962 0
0.100472 0
0.0295449 0
0.770375 0
0.624888 0
0.563287 0
0.605828 0
0.0461022 0
0.0480741 0
0.153881 0
0.69826 0
0.463169 0
0.975742 0
0.195032 0
0.327432 0
82.2694 -2.11649e-192
63.7716 6.22329e-193
66.9342 6.39798e-193
24.0461 -4.35565e-193
66.3457 4.65755e-193
50.1643 -3.57581e-193
33.6981 -5.16038e-193
80.7987 4.05599e-193
728.884 1.79383e-191
55.0801 1.95467e-193
42.4257 3.77694e-193
129.949 -1.59033e-192
49.5658 -6.62358e-195
92.4226 9.32286e-193
88.6147 7.44294e-193
88.296 -1.09982e-193
453.618 -7.20252e-09
69.3761 -3.89971e-10
28.6491 -4.97008e-10
90.8255 -1.17312e-09
144.591 -7.93362e-10
79.8339 -2.61623e-09
163.107 -2.89847e-09
81.364 -1.84872e-09
-581.426 5.64513e-08
104.991 -1.21574e-09
40.5673 -6.40443e-11
832.671 -1.06102e-08
167.148 -1.92888e-09
99.283 -1.76271e-10
71.0758 -4.45605e-10
164.714 -3.42946e-09
827.274 -1.59484e-07
159.347 -8.63507e-09
26.6501 -1.10052e-08
181.919 -2.59762e-08
283.268 -1.75673e-08
171.705 -5.79307e-08
347.519 -6.41805e-08
208.009 -4.0936e-08
-556.276 1.24999e-06
158.192 -2.69199e-08
89.4852 -1.41812e-09
1587 -2.3494e-07
320.098 -4.27108e-08
168.513 -3.90315e-09
164.284 -9.86696e-09
354.192 -7.59381e-08
-175.45 1.32599e-06
5.60708 2.91227e-07
-334.469 5.61952e-07
209.144 -5.22228e-08
68.1934 2.51068e-07
-58.0433 1.24265e-06
-39.9242 4.04955e-07
-242.29 5.68954e-07
-2452.34 -2.95222e-08
-310.306 7.13655e-07
-158.288 4.80459e-07
647.023 2.77863e-06
124.729 5.01835e-08
-315.154 5.03054e-07
-255.368 2.01387e-07
230.483 1.19492e-06
-2898.63 2.98797e-05
-550.987 5.78708e-06
-1056.65 1.10006e-05
-91.5825 -2.29065e-07
-712.921 5.28647e-06
-864.035 2.53128e-05
-1303.23 9.57988e-06
-1650.18 1.2013e-05
-7056.2 -3.72883e-05
-1405.64 1.43506e-05
-892.865 9.1705e-06
-2324.26 5.96976e-05
-594.474 2.20834e-06
-1521.13 9.6728e-06
-1530.29 4.11623e-06
-425.179 2.4935e-05
255.944 0.000145726
6.22723 2.80782e-05
-422.991 5.33378e-05
85.7937 -9.38766e-07
-53.5854 2.57128e-05
-424.985 0.000122946
-350.308 4.68075e-05
-902.238 5.84363e-05
-5376.16 -0.000188744
-784.696 6.96631e-05
-623.063 4.44136e-05
2072.75 0.0002906
193.857 1.09731e-05
-763.691 4.68621e-05
-922.914 1.9996e-05
532.954 0.000121235
1628.01 0.000229899
102.756 4.42657e-05
-279.125 8.40802e-05
124.397 -1.44339e-06
-20.1622 4.05501e-05
-444.598 0.000193854
-57.0748 7.38619e-05
-901.872 9.21575e-05
-10.8253 -0.000299211
-759.415 0.000109832
-553.655 7.00016e-05
3460.12 0.000458338
267.14 1.73541e-05
-497.285 7.38642e-05
-787.055 3.15294e-05
792.045 0.000191182
426.089 0.000317244
43.2068 6.1065e-05
-530.058 0.000115984
-90.725 -1.96794e-06
-248.087 5.59479e-05
-649.629 0.000267436
-501.181 0.000101936
-1358.48 0.000127151
5721.61 -0.000413799
-1139.98 0.000151518
-665.12 9.65561e-05
3041.21 0.000632401
-53.8163 2.39756e-05
-579.208 0.000101887
-1147.8 4.3499e-05
768.084 0.000263768
-41.7622 3.00712e-05
43.284 5.80465e-06
-775.134 1.10149e-05
-227.779 -1.90489e-07
-486.727 5.31044e-06
-602.408 2.53915e-05
-1139.59 9.6635e-06
-1669.2 1.20704e-05
19860.7 -3.90157e-05
-1595.19 1.43775e-05
-745.192 9.17221e-06
2453.73 5.99954e-05
-699.804 2.26705e-06
-707.956 9.67422e-06
-1246.2 4.12853e-06
1042.85 2.50404e-05
-2951.61 0.27446
-1014.28 0.0640642
-1811.77 0.0555282
-993.088 0.0151162
-1861.96 0.0694369
-1536.94 0.0815378
-2772.28 0.101191
-3452.58 0.103429
13108.7 0.342699
-2779.57 0.0771289
-1662.13 0.0626688
-1928.29 0.434524
-2172.8 0.0735424
-2187.81 0.0829695
-3015.17 0.0921084
-548.654 0.163774
-9795.54 0.962324
-3579.69 0.212717
-4148.4 0.183358
-2528.97 0.0581205
-5049.84 0.233401
-4105.25 0.28594
-6603.08 0.353381
-7605.23 0.350219
-661.9 0.900729
-5755.97 0.262571
-3848.05 0.210671
-13721.4 1.51203
-5421.3 0.253781
-5808.53 0.273606
-6690.23 0.307028
-4293.25 0.565881
-14305.7 6.01308
-5356.13 0.738769
-5662.62 0.635125
-3795.36 0.379364
-7367.49 0.875546
-5784.13 1.22362
-9100.81 1.62292
-10049.7 1.40267
-718.544 1.02268
-7540.38 1.06356
-4801.67 0.771376
-22821.3 6.5235
-7931.31 1.01513
-7613.89 0.932086
-8513.87 1.17052
-6998.3 2.34516
-24284 22.9368
-7340.49 2.71687
-7163.17 2.32607
-4396.77 1.48464
-9931.79 3.24805
-8075.4 4.65006
-13024.6 6.16842
-13140.9 5.24167
13320.3 1.98839
-10175.2 3.98389
-6183.85 2.86753
-39774.1 24.7173
-11498.3 3.82014
-10025.1 3.40861
-10138.9 4.33375
-10564.8 8.85413
-25166.3 24.7615
-7936.16 2.97147
-7146.49 2.61957
-3724.05 1.57276
-10466.9 3.52227
-9447.78 5.28351
-13761.3 6.67604
-14034.2 5.73217
14990.7 1.77985
-11299.7 4.41999
-7342.52 3.17605
-46404.3 27.052
-12812.9 4.08569
-11237.9 3.75218
-10300.6 4.66035
-12598 9.7478
-13973.3 25.0777
-6418.83 3.04664
-5282.47 2.76101
-2127.4 1.56132
-7963.09 3.58244
-8180.93 5.60655
-9116.63 6.77769
-10969.4 5.87749
-10473.2 1.52546
-8887.57 4.59465
-6727.09 3.2948
-32454.9 27.754
-9690.58 4.09896
-9505.06 3.87311
-8244.77 4.70326
-11192.8 10.0549
-4763.08 25.1088
-4258.81 3.05361
-3193.38 2.76753
-869.435 1.55964
-5060.32 3.58757
-6284.65 5.60574
-4694.33 6.7833
-7305 5.88691
-19100.2 1.82465
-6065.31 4.59991
-5225.79 3.30101
-18028.2 27.7669
-6220.28 4.10009
-6588.92 3.8828
-5538.99 4.71501
-8471.08 10.0619
1390.67 11.8639
-2298.19 1.49043
-1606.73 1.43793
-154.677 0.690249
-2339.79 1.72097
-3915.53 2.89903
-942.534 3.21402
-4009.42 2.87057
-36021.9 1.21563
-3179.63 2.31064
-3572.4 1.64663
-3711.03 13.4461
-2575.73 1.88652
-3919.89 1.93615
-3594.3 2.23467
-5229.8 4.92613
1445.5 0.575636
-1653.55 0.15332
-1311.85 0.298279
-195.89 -0.0457395
-1514.89 0.12531
-2966.91 0.595299
69.8631 0.173336
-3109.61 0.29436
-43708.9 0.508318
-2284.22 0.354468
-2853.29 0.233292
1079.41 1.24074
-1111.95 -0.000576866
-3089.71 0.26691
-3344.84 0.112088
-3747.65 0.5497
5608.24 0.58636
-968.694 0.179945
-984.186 0.321611
-456.802 -0.0413599
-825.847 0.150834
-1624.57 0.648358
1437.95 0.202633
-2105.49 0.32295
-43784.8 0.000685543
-1253.98 0.380109
-2009.81 0.258464
9303.38 1.41052
267.435 0.0403064
-2114.18 0.298238
-3089.96 0.125064
-1568.54 0.62736
12377.7 0.53646
453.93 0.178256
452.328 0.320199
-180.183 -0.0509846
777.769 0.147197
683.3 0.630399
3546.82 0.183117
721.995 0.314408
-24157.7 0.238725
987.164 0.372456
-291.994 0.253824
17845.5 1.35233
1858.68 0.0303168
350.67 0.297963
-665.236 0.124134
1332.68 0.603135
16357.3 0.676814
1165.26 0.145333
1499.54 0.28562
215.502 -0.0205216
1731.18 0.123397
1877.3 0.660834
5046.45 0.21845
2621.68 0.295585
-12034.5 -0.856111
2523.48 0.364154
865.088 0.23657
21463.9 1.47433
2801.14 0.0352184
2005.96 0.245174
1247.61 0.0855985
2654.83 0.627968
10972.4 0.50223
603.07 0.108195
1407.89 0.21324
-183.808 -0.0153834
1063.92 0.0917583
1307.18 0.494771
3479.22 0.162593
1806.59 0.220258
-9677.43 -0.664293
2090.89 0.271951
591.741 0.176582
14489.9 1.10119
1925.32 0.0259745
1537.19 0.182626
836.348 0.0627991
1651.32 0.469187
4240.32 7.00814e-24
102.752 1.56029e-25
644.606 3.30843e-25
-171.212 7.82445e-25
255.084 6.03959e-25
357.14 1.72137e-24
1278.44 2.25177e-24
537.769 1.02214e-24
-1870.76 -2.74984e-23
682.601 1.02441e-24
62.7418 7.23932e-26
5312.12 8.96761e-24
604.848 1.34549e-24
435.156 1.57443e-25
223.609 3.46702e-25
591.096 2.62432e-24
1790.22 6.55326e-68
-24.9372 7.03416e-69
265.42 7.71e-69
-146.867 2.33531e-69
70.6865 8.24876e-69
167.124 6.8769e-69
555.307 1.65277e-68
160.132 1.473e-68
-2717.93 1.37631e-67
317.225 1.06865e-68
-50.8985 5.92718e-69
2558.84 5.40501e-68
281.858 7.81436e-69
78.7034 1.12343e-68
-71.6118 1.41743e-68
227.779 1.79704e-68
40.8451 9.80059e-131
-177.518 3.03694e-131
-38.5839 5.97802e-131
-165.501 4.46522e-132
-152.982 2.48389e-131
-27.018 1.4182e-130
-34.8826 4.17284e-131
-208.774 5.74851e-131
-3846.44 -5.20544e-130
-13.7992 7.0675e-131
-180.673 4.87374e-131
350.439 2.79165e-130
-51.7455 8.7523e-132
-239.962 4.66244e-131
-356.424 1.26713e-131
-142.352 1.23328e-130
-91.6996 -1.15378e-173
-55.7255 -1.15302e-173
-29.4767 -8.66233e-174
-49.1431 6.44863e-174
-50.5493 -7.19344e-174
-0.457243 1.79531e-173
-46.5071 2.77434e-174
-68.8496 -1.21514e-173
-1125.88 -6.44777e-172
-8.79259 -3.01317e-174
-52.5273 -1.03739e-173
-24.5181 4.1331e-173
-37.828 4.44831e-174
-79.7658 -1.80608e-173
-114.541 -2.3728e-173
-62.1898 8.37017e-174
0.294691 0
0.01305 0
0.435821 0
0.338832 0
0.306331 0
0.350497 0
0.197279 0
0.478031 0
0.183401 0
0.194551 0
0.508391 0
0.575516 0
0.569407 0
0.34061 0
0.695198 0
0.74934 0
0.957051 0
0.884019 0
0.917132 0
0.571926 0
0.747365 0
0.89415 0
0.285849 0
0.946908 0
0.430357 0
0.614317 0
0.317042 0
0.295937 0
0.775719 0
0.575563 0
0.101195 0
0.07041 0
64.7288 -1.65576e-192
50.4032 4.86856e-193
52.7295 5.00522e-193
19.4675 -3.40748e-193
52.703 3.64366e-193
39.7442 -2.7974e-193
26.2938 -4.03703e-193
63.1395 3.17305e-193
570.629 1.40333e-191
43.4743 1.52916e-193
33.5953 2.95475e-193
101.617 -1.24414e-192
38.5437 -5.18171e-195
72.2039 7.2934e-193
68.6936 5.82271e-193
68.9393 -8.60402e-194
200.052 -4.83598e-08
85.7241 -2.61838e-09
48.573 -3.33705e-09
86.7376 -7.87664e-09
164.336 -5.32686e-09
46.4037 -1.75661e-08
78.7923 -1.94612e-08
33.358 -1.24129e-08
-306.915 3.7903e-07
87.5651 -8.16281e-09
17.2911 -4.30011e-10
688.341 -7.12399e-08
175.257 -1.2951e-08
105.051 -1.18354e-09
50.9319 -2.99192e-09
193.208 -2.30264e-08
448.048 -2.6032e-07
243.421 -1.40947e-08
-37.8888 -1.79633e-08
281.805 -4.23998e-08
315.75 -2.86744e-08
149.354 -9.45579e-08
232.848 -1.04759e-07
148.844 -6.68182e-08
-780.14 2.04031e-06
-24.7186 -4.39402e-08
30.4759 -2.31474e-09
1375.95 -3.83483e-07
349.067 -6.97151e-08
60.2237 -6.37094e-09
104.873 -1.61054e-08
507.291 -1.23951e-07
-906.347 1.87869e-05
295.306 3.65043e-06
-137.961 6.94196e-06
265.003 -1.5846e-07
305.218 3.32952e-06
-15.4573 1.59565e-05
-182.42 6.01643e-06
-121.308 7.56548e-06
-1299.52 -2.28881e-05
-308.126 9.04932e-06
-128.655 5.79118e-06
568.473 3.75794e-05
343.511 1.37208e-06
-133.122 6.1071e-06
-142.661 2.59448e-06
616.353 1.57083e-05
-1394.12 0.00038379
270.999 7.38828e-05
-162.311 0.000140333
127.106 -2.39297e-06
224.078 6.76872e-05
-175.328 0.000323569
-391.578 0.000123312
-405.393 0.000153832
-5298.31 -0.000500146
-460.643 0.000183322
-356.798 0.000116831
643.769 0.000765092
356.18 2.89895e-05
-344.05 0.000123279
-553.427 5.26272e-05
568.029 0.000319122
1801.27 0.000382295
918.571 7.35825e-05
615.979 0.00013976
338.453 -2.36831e-06
937.639 6.74175e-05
307.432 0.000322265
406.341 0.000122839
381.735 0.00015322
473.598 -0.000498785
126.265 0.00018258
-109.129 0.000116349
4524.1 0.000762064
1063.75 2.88941e-05
521.927 0.000122772
181.107 5.24155e-05
1663.37 0.000317846
-707.98 0.000128496
350.237 2.4733e-05
213.369 4.69753e-05
-109.436 -7.95301e-07
138.142 2.26611e-05
-878.093 0.000108317
-618.688 4.12893e-05
-1010.81 5.15003e-05
-4286.07 -0.000167667
-885.222 6.13677e-05
-908.168 3.91064e-05
1274.35 0.000256143
427.937 9.7138e-06
-350.192 4.1266e-05
-1004.25 1.76188e-05
600.355 0.000106833
-257.227 8.72551e-05
562.082 1.67961e-05
300.001 3.1899e-05
-53.9744 -5.3956e-07
289.911 1.53894e-05
-603.316 7.35509e-05
-508.781 2.80384e-05
-683.737 3.49721e-05
8661.61 -0.000113854
-784.989 4.16715e-05
-688.877 2.65553e-05
2006.91 0.000173935
251.399 6.59827e-06
96.7138 2.8023e-05
-569.845 1.19658e-05
958.795 7.25455e-05
-2693.82 0.114029
-399.665 0.0182528
-506.754 0.0150885
-678.298 0.00941766
-992.724 0.021305
-1574.69 0.0328395
-2114.12 0.0402291
-2283.15 0.0338787
15564.6 -0.0291414
-2009.81 0.0260212
-1531.11 0.0197972
-2921.22 0.167801
-1493.39 0.0265787
-1073.73 0.0222976
-1796.69 0.0271403
-492.768 0.0608727
-3969.54 1.16772
-1326.59 0.246443
-1028.78 0.251199
-1466.55 0.0593616
-2191.18 0.262967
-2558.56 0.461647
-3518.92 0.419096
-3645.27 0.425634
17501.2 0.504645
-2950.64 0.355576
-2408.94 0.270379
-7328.2 1.92226
-3053.76 0.26673
-2062.04 0.329214
-2911.75 0.325221
-2023.45 0.735863
-12691.4 0.693282
-3440.01 0.188717
-2979.08 0.247258
-3131.5 0.00144452
-5094.97 0.182298
-4768.94 0.4462
-7694.22 0.252367
-7123.28 0.319804
20555.3 0.549316
-5681.86 0.307844
-3923.28 0.225083
-21131.2 1.34724
-6310.1 0.130412
-4775.77 0.277954
-5571.67 0.204187
-5038.76 0.558454
-18469.8 23.9768
-4459.14 2.94467
-3623.36 2.64844
-4050.44 1.47907
-6482.52 3.46379
-5760.17 5.24953
-9778.39 6.47713
-8633.3 5.64143
23793.7 2.71049
-6563.98 4.3846
-4215.05 3.15106
-28762.7 26.4233
-7764.86 3.95433
-5510.5 3.75367
-6433.11 4.57143
-6519.22 9.56197
-21004.9 24.6582
-4478.45 3.00322
-3161.51 2.65847
-3403.52 1.54061
-6241.3 3.55012
-6420.87 5.25733
-10049.3 6.6496
-8847.22 5.75681
13136 2.80339
-6745.66 4.43934
-4694.38 3.19294
-32237 26.9763
-7556.72 4.08607
-5943.24 3.81152
-6284.63 4.70462
-7297.69 9.7294
-18668.2 24.9366
-3557.39 3.07108
-1974.43 2.78956
-2061.47 1.53303
-4725.41 3.60212
-6361.89 5.58674
-8714.97 6.74544
-7749.62 5.88911
-443.345 2.1729
-5961.94 4.60434
-4842.58 3.30705
-29796.1 27.6726
-6147.11 4.09917
-5398.17 3.9174
-5216.01 4.7294
-7056.41 10.0357
-7143.66 24.8271
-1760.05 3.0436
-519.382 2.72157
-189.787 1.54664
-1876.43 3.57813
-4806.56 5.44651
-4156.45 6.71263
-4394.7 5.82739
-15059.8 2.20473
-3528.1 4.51983
-3737.38 3.25757
-15784.1 27.4041
-2926.65 4.10758
-3269.06 3.85938
-2616.53 4.71192
-5020.18 9.92038
-2285.85 24.6775
-969.994 3.01774
-135.543 2.6611
831.659 1.54562
-778.502 3.55451
-4409.01 5.27397
-2157.6 6.65834
-3002.76 5.76543
-18593.8 2.94867
-3035.95 4.43496
-3550.38 3.20649
-10854.7 27.0241
-1982.3 4.09599
-2632.33 3.81421
-1607.74 4.70833
-4565.82 9.76348
-1627.64 5.97454
-563.716 0.761546
-114.852 0.658065
1121.61 0.356977
-407.051 0.889465
-4062.61 1.17829
-1518.8 1.59485
-2573.52 1.4185
-12489.3 2.40596
-3084 1.06377
-3294.45 0.780858
-8291.25 6.37832
-1625.61 0.996184
-2292.38 0.967635
-1242.23 1.20957
-3693.96 2.30543
5400.8 0.038165
1225.14 0.0694284
1396.14 0.110292
1261.57 -0.0421601
1514.86 0.0537594
-1654.65 0.0969
1511.82 0.00711153
458.679 0.0963299
6715.46 1.72349
-601.454 0.0964655
-1226.63 0.0729403
3782.22 0.122531
568.345 -0.0196748
813.683 0.121073
1072.69 0.0782072
-361.585 0.088655
9838.12 0.362834
1150.74 0.147266
882.57 0.253823
521.211 -0.043891
1294.32 0.121303
-674.969 0.472281
2609.88 0.133495
511.944 0.246638
-6999.07 0.409717
-71.2803 0.285932
-825.745 0.199923
11887 0.992278
1379.24 0.0267582
756.243 0.243385
28.0015 0.106298
780.839 0.455941
11581.8 0.486628
1115.37 0.171803
984.193 0.313345
-105.603 -0.0542607
1283.57 0.139803
307.94 0.621162
3098.82 0.168149
1051.66 0.30179
-13362.8 0.189538
934.025 0.362916
-240.621 0.247704
15472.9 1.30374
1918.53 0.0221629
1169.81 0.289065
-79.6774 0.113579
1394.26 0.584064
12316.6 0.637159
886.96 0.141015
1301 0.28084
-282.941 -0.021923
1262.94 0.11839
1120.91 0.65677
3626.23 0.208587
1612.77 0.286738
-15591.2 -0.947208
1930.38 0.35765
342.055 0.232839
16864.8 1.44169
2210.41 0.0305841
1550.92 0.23878
311.124 0.076951
1764.5 0.616543
10831.6 0.471844
572.394 0.10497
1291.17 0.209649
-356.895 -0.0165734
1019.34 0.0879577
1141.35 0.491435
3334.68 0.154911
1627.52 0.213495
-12162.6 -0.724769
2051.92 0.266978
515.918 0.173831
14351 1.07559
1901.18 0.0222986
1492.22 0.177887
568.922 0.0563531
1420.09 0.46028
2796.21 1.37196e-24
-330.537 3.05454e-26
320.341 6.47682e-26
-619.478 1.53177e-25
-293.15 1.18235e-25
-44.3243 3.36988e-25
633.321 4.40823e-25
-256.708 2.00101e-25
-9142.38 -5.38329e-24
301.933 2.00547e-25
-375.85 1.41722e-26
4026.06 1.75556e-24
197.693 2.63403e-25
-230.152 3.08221e-26
-717.155 6.78728e-26
-65.2256 5.13756e-25
1901.59 3.89653e-67
-138.445 4.18248e-68
287.727 4.58433e-68
-313.85 1.38856e-68
-123.483 4.90467e-68
12.3264 4.08897e-68
419.725 9.82731e-68
-71.3111 8.75837e-68
-1723.21 8.18347e-67
175.291 6.35416e-68
-188.851 3.52427e-68
2572.54 3.21379e-67
129.546 4.64638e-68
-75.2519 6.67983e-68
-254.458 8.42797e-68
178.06 1.06851e-67
101.22 6.02138e-131
-41.583 1.86593e-131
25.1213 3.67304e-131
-63.1938 2.74306e-132
-45.3639 1.52611e-131
20.4611 8.71381e-131
0.256992 2.56378e-131
-40.9503 3.53196e-131
-586.958 -3.19839e-130
22.5078 4.34244e-131
-38.6515 2.99453e-131
181.719 1.71524e-130
-26.4583 5.37675e-132
-42.5863 2.86466e-131
-83.8959 7.78453e-132
-10.5696 7.57753e-131
0.99719 0
0.862611 0
0.623091 0
0.99253 0
0.841061 0
0.0571901 0
0.0197106 0
0.197449 0
0.466047 0
0.722671 0
0.846739 0
0.36331 0
0.241611 0
0.953567 0
0.548113 0
0.402529 0
0.0823198 0
0.0869693 0
0.742225 0
0.204068 0
0.94192 0
0.426935 0
0.392702 0
0.801364 0
0.347043 0
0.738538 0
0.19634 0
0.900913 0
0.432077 0
0.23883 0
0.919166 0
0.429267 0
-73.7377 -1.16214e-116
11.5695 3.68895e-118
13.2924 4.53982e-118
-3.05058 -1.43037e-117
10.7507 -6.45988e-119
-4.47697 -2.22715e-117
-21.1123 -2.99359e-117
-0.582806 -8.55311e-118
131.801 3.6932e-116
0.220801 -8.60353e-118
-2.84801 -1.75115e-118
-42.2131 -1.05185e-116
6.94349 -1.16826e-117
10.8195 6.47164e-118
4.8334 1.28941e-118
12.3859 -2.87601e-117
-18.0487 -2.45319e-61
18.4066 3.59959e-62
20.0836 3.79998e-62
2.45674 -4.81223e-62
19.1212 1.99875e-62
7.1926 -7.03964e-62
-0.306751 -7.57439e-62
16.6996 9.44876e-63
185.654 1.92648e-60
11.8703 -4.77816e-63
7.38988 1.47763e-62
8.10359 -2.8366e-61
14.2256 -2.93467e-62
22.9611 6.18517e-62
18.8415 4.88551e-62
22.3015 -6.928e-62
188.978 -0.000199178
101.08 -7.09531e-05
70.9468 -4.19279e-05
64.4066 -6.87424e-05
190.382 -8.08345e-05
71.7666 -0.000383053
163.216 -0.000201208
91.7065 -8.3691e-05
-1483.14 0.00618022
141.783 -0.000107106
35.3497 -9.28351e-05
893.84 -0.00131492
250.324 -0.000257011
122.61 -4.49028e-05
46.7193 5.08776e-05
199.714 -0.000502362
119.844 -0.00238981
323.333 -0.00085142
135.705 -0.000503113
223.985 -0.000824856
430.374 -0.000969979
170.209 -0.00459652
224.962 -0.00241437
235.517 -0.00100421
-1306.39 0.0741601
129.878 -0.00128522
53.1603 -0.00111402
1376.39 -0.0157785
484.396 -0.00308405
211.351 -0.000538826
152.201 0.000610552
571.272 -0.00602819
-1289.36 -1.81277e-07
422.435 -9.89903e-09
94.2509 -1.22492e-08
155.683 -2.94684e-08
439.125 -2.00409e-08
20.169 -6.46146e-08
-187.074 -7.2761e-08
7.74306 -4.63397e-08
-2584.67 1.39965e-06
-128.63 -3.02543e-08
-107.488 -1.68301e-09
586.305 -2.65264e-07
507.392 -4.85067e-08
52.4181 -4.53454e-09
-117.784 -1.16973e-08
689.794 -8.56109e-08
-951.82 0.000203045
507.635 3.90811e-05
96.7377 7.42293e-05
212.882 -1.25762e-06
446.268 3.58068e-05
-131.463 0.000171163
-119.664 6.52427e-05
-12.1133 8.13785e-05
-5128.78 -0.000264943
-302.549 9.69723e-05
-249.538 6.17949e-05
533.344 0.00040475
571.548 1.53465e-05
-43.9651 6.52063e-05
-243.609 2.78385e-05
612.899 0.000168815
224.761 0.000401334
822.845 7.72462e-05
742.689 0.000146718
236.376 -2.48544e-06
797.551 7.07745e-05
-195.593 0.000338312
-16.0579 0.000128957
180.242 0.00016085
-649.393 -0.000523669
-101.041 0.000191671
-348.348 0.000122141
1417.16 0.000800013
825.55 3.03339e-05
461.173 0.000128884
85.3921 5.50251e-05
986.786 0.000333674
-611.949 0.000401337
620.703 7.72486e-05
878.722 0.000146721
-208.3 -2.4851e-06
495.87 7.0777e-05
-776 0.000338315
-344.8 0.000128959
-399.102 0.000160853
-3096.19 -0.000523677
-355.088 0.000191674
-789.214 0.000122143
1014.21 0.000800023
653.359 3.03365e-05
302.364 0.000128887
-501.336 5.50276e-05
560.423 0.000333678
429.659 0.000302989
410.763 5.83195e-05
872.079 0.000110767
-345.729 -1.87578e-06
328.554 5.34339e-05
-848.732 0.00025541
-235.564 9.73583e-05
-430.419 0.000121436
1267.93 -0.000395349
-361.245 0.000144704
-979.245 9.2212e-05
1234.07 0.000603978
247.699 2.29039e-05
276.299 9.73042e-05
-555.484 4.15441e-05
218.832 0.00025191
-3810.83 0.972931
-615.665 0.189289
115.076 0.160796
-1107.61 0.0678432
-1275 0.21208
-2150.11 0.284496
-2625.66 0.350652
-2137.36 0.32565
21794.3 0.430827
-1986.01 0.24621
-1808.4 0.193819
-7585.75 1.48319
-2247.77 0.24289
-796.177 0.239049
-1405.49 0.276158
-1570.22 0.548237
-6316.88 1.00308
-1793.5 0.226808
-767.842 0.237216
-2658.75 0.0401273
-3004.41 0.237837
-3305.37 0.398413
-4368.82 0.356393
-3783.19 0.385135
29747.3 1.04228
-3057.5 0.321202
-2326.66 0.24526
-12638.1 1.63704
-4122.36 0.221384
-1580.66 0.309543
-2677.06 0.302688
-3249.29 0.634551
-11006.7 7.74343
-2282.53 1.0356
-1315.3 1.0561
-3372.14 0.41441
-3763.03 1.17091
-3278.77 2.07833
-6067.53 2.11977
-4336.44 1.96813
40279.6 1.23878
-3357.8 1.62622
-2020.92 1.15713
-18158.5 9.06665
-5086.44 1.22271
-1740.37 1.37658
-2858.06 1.49781
-3560.31 3.37122
-13585.3 25.3286
-2118.25 3.12263
-990.05 2.84164
-3448.48 1.55187
-3385.63 3.66345
-3415.19 5.65842
-6008.45 6.85279
-4397.09 5.98788
21976.8 2.56817
-2921.83 4.68297
-1909.32 3.35992
-17326.4 28.0706
-3902.82 4.16195
-1548.74 3.99258
-3077.6 4.81677
-3342.13 10.1801
-15866.3 24.6897
-1170.69 3.04423
274.34 2.77188
-2419.24 1.51506
-1882.27 3.57356
-3448.96 5.55261
-5459.71 6.68778
-3720.78 5.83824
-7293.22 1.85402
-2093.17 4.57399
-2047.96 3.27916
-16628.5 27.4708
-1878.48 4.07112
-1233.72 3.89059
-2609.38 4.68355
-2955.29 9.9591
-16347.6 18.3149
-582.434 2.29584
754.137 2.1256
-1351.22 1.10538
-648.11 2.67373
-3489.12 4.26623
-5053.55 4.97446
-3471.73 4.38485
-32695.8 1.3105
-1740.48 3.46337
-2518.25 2.48748
-15381.2 20.6135
-457.264 3.01358
-1638.3 2.94367
-2625.4 3.48091
-2767.8 7.5106
-2738.83 25.3434
1277.92 3.14096
2112.85 2.80304
559.609 1.58452
2216.46 3.6877
-1342.21 5.60497
-318.832 6.89731
190.659 5.99428
-35882.1 2.15833
844.485 4.64762
-1173.73 3.35856
259.456 28.202
2472.74 4.23942
718.3 3.98022
288.258 4.84844
-107.71 10.2155
276.208 25.2567
1082.88 3.10142
1564.65 2.64745
1588.45 1.62947
1850.13 3.67271
-1785.76 5.21931
-189.226 6.87535
53.2191 5.89749
-11579.7 3.05209
-468.443 4.46839
-1771.57 3.25494
-1989.92 27.6764
942.019 4.30359
15.0474 3.88273
749.191 4.88902
-691.703 9.95766
800.662 1.19053
881.115 0.207983
1068.14 0.181493
1961.42 0.0546441
1322.2 0.227025
-2124.14 0.240386
-453.383 0.336006
-191.969 0.346765
14594.1 1.74944
-1533.62 0.25063
-1935.97 0.199017
-4933.33 1.36145
-572.109 0.223255
-249.587 0.270473
1145.29 0.319278
-1161.38 0.510258
5214.76 -0.145259
1687.57 0.0323649
1401.74 0.0376552
1418.22 -0.0360689
1953.2 0.0220147
-898.258 -0.0665979
1079.81 -0.0487825
1005.35 0.0202811
21886 1.85324
-412.072 0.00404953
-894.057 0.013729
3039.67 -0.252147
370.233 -0.0280786
1328.08 0.0580948
1564.6 0.0533799
372.276 -0.0685205
9408.41 -0.123298
2180.78 0.0406991
1442.96 0.0424181
655.673 -0.0278256
2299.83 0.0315135
235.943 -0.0206439
2681.19 -0.024996
1794.53 0.029882
4998.95 1.10199
778.6 0.0165893
31.6812 0.0247196
12228.4 -0.095094
1960.2 0.002767
2268.93 0.0631538
1151.98 0.0467792
1820.9 -0.00847926
10157.6 0.31453
1815.2 0.134647
1369.27 0.241056
17.9538 -0.0500302
1925.88 0.108066
725.035 0.452898
3009.13 0.111426
1813.95 0.226409
-9737.89 0.436627
1462.29 0.270513
324.389 0.187447
14521.7 0.927933
2322.58 0.0118745
2234.84 0.226883
601.145 0.0919059
1811.8 0.423411
8746.54 0.628083
883.612 0.140031
1049.67 0.27975
-520 -0.0222644
1152.95 0.117243
871.407 0.655795
2749.43 0.206301
1301.8 0.284696
-19346.9 -0.966336
1803.41 0.356157
367.201 0.231996
13349 1.43411
1959.39 0.0294953
1624.31 0.237333
-29.0081 0.0749899
1093.1 0.613896
6184.45 0.47048
107.993 0.104888
574.972 0.209541
-681.961 -0.0166709
328.878 0.0878213
514.793 0.491215
1895.61 0.154536
576.88 0.213252
-18304.9 -0.724026
1265.04 0.266774
100.322 0.173771
9209.44 1.07423
1099.34 0.022101
670.253 0.177768
-439.724 0.0561721
297.925 0.459837
729.449 3.79022e-67
-352.255 4.06836e-68
69.7381 4.45925e-68
-594 1.35068e-68
-388.194 4.77085e-68
-208.354 3.97741e-68
126.37 9.55919e-68
-450.373 8.51941e-68
-8794.87 7.96019e-67
72.4649 6.18079e-68
-336.701 3.42812e-68
1715.22 3.12611e-67
-23.5859 4.51961e-68
-289.637 6.49759e-68
-790.428 8.19802e-68
-370.787 1.03936e-67
502.835 2.28477e-67
-79.7213 2.45243e-68
79.5963 2.68806e-68
-129.106 8.14198e-69
-82.4354 2.8759e-68
24.4113 2.39761e-68
64.6099 5.76234e-68
-66.2875 5.13555e-68
-607.454 4.79845e-67
44.8612 3.72582e-68
-86.5055 2.06649e-68
695.324 1.88444e-67
-25.7704 2.72445e-68
-61.507 3.91678e-68
-131.795 4.94182e-68
24.0077 6.2653e-68
-5.65361 -1.11402e-177
-4.49074 -1.1652e-177
-0.968407 -8.7516e-178
-5.29843 6.22732e-178
-3.79492 -7.21795e-178
1.90309 1.73272e-177
-4.14944 2.51864e-178
-4.87548 -1.22473e-177
-72.9696 -6.35482e-176
0.68737 -3.11352e-178
-3.74522 -1.06295e-177
-0.947508 4.00907e-177
-4.77531 4.23513e-178
-5.4616 -1.80928e-177
-9.19767 -2.36119e-177
-4.54147 7.82285e-178
0.561173 0
0.32134 0
0.523095 0
0.619174 0
0.735429 0
0.191728 0
0.452577 0
0.445916 0
0.0210179 0
0.764856 0
0.160483 0
0.308771 0
0.578197 0
0.440573 0
0.663282 0
0.166437 0
0.978634 0
0.441144 0
0.284593 0
0.947595 0
0.473819 0
0.0406013 0
0.478357 0
0.927209 0
0.299325 0
0.00146201 0
0.945423 0
0.589338 0
0.747755 0
0.426785 0
0.996404 0
0.308928 0
-7.77178 -1.34093e-117
1.79188 4.25648e-119
2.41317 5.23826e-119
0.0228149 -1.65042e-118
1.88253 -7.4537e-120
-0.186837 -2.56979e-118
-1.52271 -3.45414e-118
0.657441 -9.86898e-119
15.3344 4.26139e-117
0.00158168 -9.92715e-119
-0.337079 -2.02056e-119
-4.19384 -1.21367e-117
1.22321 -1.348e-118
1.83998 7.46728e-119
1.3546 1.48778e-119
1.9357 -3.31847e-118
-0.917336 -1.24738e-62
0.972454 1.8303e-63
1.35076 1.9322e-63
0.702824 -2.4469e-63
1.02337 1.01631e-63
1.18282 -3.57948e-63
0.432524 -3.85138e-63
1.20789 4.80446e-64
9.09866 9.79568e-62
1.00113 -2.42957e-64
0.395477 7.51338e-64
0.832377 -1.44234e-62
1.54497 -1.4922e-63
1.10172 3.145e-63
1.78855 2.48416e-63
1.63129 -3.52271e-63
-297.858 -0.00109523
121.203 -0.000390229
113.03 -0.000230586
27.1491 -0.000378042
196.025 -0.000444562
10.8783 -0.0021067
21.2099 -0.00110654
33.8524 -0.000460236
-1606.42 0.0339892
101.945 -0.000589042
-14.1478 -0.000510591
466.493 -0.00723167
251.355 -0.00141349
107.866 -0.00024696
-4.22349 0.000279843
193.579 -0.00276287
-810.276 -0.0215061
200.437 -0.00766266
145.242 -0.00452787
109.316 -0.00742335
252.073 -0.00872957
-13.0246 -0.0413679
-208.487 -0.0217284
23.6292 -0.00903733
1573.4 0.667424
-51.1073 -0.0115666
-89.1186 -0.0100261
-482.627 -0.142003
142.894 -0.0277558
83.506 -0.00484938
67.7931 0.0054951
272.761 -0.0542527
-961.964 -0.00517755
461.172 -0.00184472
297.816 -0.00109005
173.887 -0.00178713
503.657 -0.00210158
32.3565 -0.009959
-82.3356 -0.00523099
250.933 -0.00217569
348.305 0.160677
14.188 -0.00278458
-47.5457 -0.0024137
-110.39 -0.0341862
443.233 -0.006682
261.461 -0.00116745
171.355 0.00132288
535.696 -0.0130609
-1634.88 1.10638e-05
556.138 2.13434e-06
375.903 4.05658e-06
178.186 -7.46189e-08
507.874 1.95327e-06
-343.766 9.34812e-06
-338.505 3.55253e-06
77.7202 4.44017e-06
-1136.39 -1.42654e-05
-238.719 5.29641e-06
-258.517 3.37775e-06
-1603.16 2.20786e-05
432.965 8.29194e-07
208.633 3.56373e-06
7.52209 1.51806e-06
255.438 9.21361e-06
164.087 -0.0684566
886.575 0.0132719
987.913 0.0140943
123.833 -0.0146904
897.499 0.00909145
-268.352 -0.0166094
161.433 -0.0188053
600.958 0.00608431
3160.5 0.508225
213.207 0.00184837
-131.019 0.0061004
-21.6092 -0.0635768
721.675 -0.00432145
954.613 0.0218568
550.539 0.0159082
517.103 -0.0157073
1809.74 -0.0907659
1291.77 0.0176245
1870.6 0.0187279
-143.789 -0.0194935
1402.55 0.0120761
-122.027 -0.0219798
787.422 -0.0249304
1198.58 0.00810177
6676.82 0.674283
941.13 0.00248643
47.131 0.0081163
2858.34 -0.0842205
1271.84 -0.00572888
1980.57 0.029025
1094.35 0.0211186
1044.5 -0.0207836
404.453 0.113761
149.5 0.067466
1218.36 0.0622017
-1003.52 -0.00921097
49.3526 0.0657072
-1160.78 0.0379713
-190.092 0.0505734
-151.374 0.0875794
9480.19 0.992674
70.7091 0.0613644
-702.485 0.0562139
-664.192 0.2396
-271.644 0.0494918
1024.55 0.0940701
-26.8052 0.0930592
-706.558 0.101829
-195.808 1.29797
-987.45 0.273671
334.282 0.27596
-1824.45 0.0636179
-1531.59 0.292553
-2090.45 0.480637
-1518.98 0.458987
-1410.77 0.472395
32702.9 1.02029
-1157.13 0.387941
-1156.02 0.295928
-5566.43 2.06537
-2537.83 0.288457
271.816 0.367106
-503.525 0.373767
-2171.39 0.788919
-3318.99 6.79044
-1935.93 0.929858
-465.165 0.922513
-3184.67 0.37594
-3150.89 1.05389
-2372.05 1.79446
-3442.17 1.89793
-2521.12 1.75328
59117.1 1.37378
-1897.38 1.42828
-899.991 1.02653
-11160.7 8.06161
-4520.08 1.11688
-5.33148 1.22602
-957.979 1.35926
-2808.6 2.98757
-5018.11 24.357
-2105.52 2.9826
-520.126 2.71891
-3893.59 1.50299
-3210.98 3.50404
-1932.95 5.46786
-3415.01 6.5947
-2774.15 5.74124
34273.2 1.82672
-1179.16 4.49902
-737.988 3.22201
-8354.85 27.0132
-3583.01 3.99297
-128.409 3.81053
-2015.48 4.59835
-2611.06 9.79547
-5498.52 25.1386
-1299.21 3.03811
213.623 2.72161
-3639.58 1.58241
-1848.75 3.5905
-1308.68 5.51824
-2054.38 6.80333
-2083.23 5.86202
-9029.27 1.17403
210.695 4.56195
-453.846 3.26874
-1196.99 27.7346
-666.561 4.14934
284.996 3.85618
-2401.69 4.71964
-1446.6 10.0197
-9924.34 18.2977
-927.713 2.20658
618.897 1.96801
-2193.74 1.15806
-542.085 2.61287
-1735.49 4.00778
-2129.5 4.95418
-2226.61 4.25849
-57465.5 0.463349
471.637 3.31067
-1250.19 2.37142
-3362.77 20.2066
1178.15 3.03295
-790.196 2.79554
-2826.14 3.42965
-2101.7 7.29168
-11634.6 7.32242
-1197.72 0.95716
-13.1746 0.9751
-934.447 0.408392
-362.283 1.08407
-2434.23 2.02395
-3147.59 2.01079
-3206.37 1.83572
-68001.8 -0.153276
-678.612 1.52684
-2447.87 1.08586
-7591.24 8.69126
788.331 1.15947
-2637.64 1.25653
-3406.02 1.36202
-2859.72 3.22781
2077.56 25.8743
743.244 3.17858
1116.43 2.82656
1366.62 1.64834
2257.1 3.74323
205.157 5.75697
1033.76 7.07939
799.134 6.10146
-39243.6 1.05868
1498.62 4.73518
-765.244 3.41801
5164.07 28.9307
2428.02 4.34185
-3.15875 4.0132
382.398 4.91106
137.848 10.466
4309.64 25.759
1007.85 3.13259
822.738 2.66819
2636.94 1.69076
2158.03 3.72433
58.4243 5.36456
966.946 7.04897
1242.04 5.99667
4247.59 1.82654
180.951 4.55323
-921.241 3.3074
1134.99 28.3736
610.581 4.40169
-16.6227 3.91149
1749.15 4.94482
126.31 10.1926
4470.58 9.28771
1188.03 1.15124
659.61 0.991682
2677.86 0.580963
1854.01 1.36014
-299.787 1.8729
437.145 2.50558
1098.29 2.1801
32124.9 2.25609
-820.775 1.64814
-1121.26 1.1989
-1575.02 10.0275
-722.125 1.55993
132.542 1.45653
2061.49 1.83077
46.0749 3.6106
4837.15 -0.147365
1713.41 0.0321191
680.603 0.0373498
1806.19 -0.0361403
1924.92 0.0217386
26.9822 -0.0669854
676.334 -0.049334
1421.71 0.0197654
35020.1 1.84988
-586.947 0.00363546
-540.97 0.0134914
1167.28 -0.254169
-306.503 -0.0283271
1137.11 0.0577256
1851.13 0.0529447
745.697 -0.0692505
7444.28 0.0160397
2746.85 0.0695019
1555.8 0.106402
710.535 -0.0366152
2731.62 0.0544078
1003.73 0.133021
2406.11 0.016225
2728.26 0.0918053
12348.6 0.909231
1256.43 0.0985243
743.749 0.0765042
10374.8 0.23261
2043.71 0.00217856
3131.55 0.114706
1895.32 0.0595918
2237.49 0.1286
5189.41 0.423283
1593.09 0.113919
879.23 0.219107
-287.25 -0.0267679
1432.06 0.0939744
210.903 0.479643
1817.41 0.141511
1312.9 0.217274
-12023 -0.373322
1000.24 0.267928
380.917 0.177914
8692.65 1.03004
1730.01 0.0190371
2059.7 0.192665
229.438 0.0670116
770.985 0.448847
5769.32 0.628116
904.263 0.140031
675.331 0.279751
-445.031 -0.0222579
938.334 0.117246
289.855 0.655809
2223.21 0.206315
1123.31 0.284704
-20333.9 -0.966692
1346.5 0.356162
534.135 0.231995
9278.53 1.43417
1684.34 0.0295054
1673.04 0.237332
74.1678 0.0749901
284.432 0.613913
1351.84 0.47048
-143.79 0.104888
-41.1647 0.209541
-627.348 -0.0166709
-169.14 0.0878213
-307.691 0.491215
549.552 0.154536
-256.209 0.213252
-16594.3 -0.724026
326.924 0.266774
-107.536 0.173771
2887.2 1.07423
324.465 0.022101
188.041 0.177768
-787.327 0.0561721
-717.399 0.459837
-1029.44 -4.82504e-42
-207.35 -8.6963e-43
-120.298 -7.31942e-43
-400.268 -2.70001e-43
-301.708 -9.61214e-43
-278.553 -8.07582e-43
-270.055 -6.56405e-43
-408.886 -1.45224e-42
-5059.76 -3.65881e-41
-107.071 -7.82044e-43
-153.871 -8.04641e-43
-514.028 -2.66417e-42
-146.111 -1.91683e-43
-153.484 -7.17074e-43
-533.239 -1.75708e-42
-447.939 -1.88151e-42
-34.7475 5.54013e-204
-41.1187 8.27708e-205
-12.7294 1.02652e-204
-46.9187 9.58269e-205
-36.1433 1.25318e-204
19.1658 2.17209e-204
-36.3628 2.85791e-204
-39.9548 1.55317e-204
-524.406 -2.5034e-203
8.71335 1.63726e-204
-33.8347 9.2465e-205
10.7452 8.81286e-204
-42.1216 1.91175e-204
-47.5767 1.03433e-204
-76.5027 8.97316e-205
-39.4184 2.94354e-204
-17.5083 8.33779e-212
-17.7266 1.60405e-212
-4.79743 2.69071e-212
-20.4375 -6.40674e-214
-16.6933 1.46771e-212
7.40193 6.01625e-212
-16.9259 2.60055e-212
-18.343 3.20697e-212
-227.699 -2.88833e-212
3.08731 3.48986e-212
-14.8725 2.30822e-212
1.07064 1.49349e-211
-19.1318 6.78598e-213
-20.7441 2.56167e-212
-33.4312 1.31282e-212
-16.9794 5.87077e-212
0.914568 0
0.994235 0
0.84659 0
0.886355 0
0.534257 0
0.583022 0
0.221426 0
0.607629 0
0.25351 0
0.623975 0
0.240629 0
0.508554 0
0.818032 0
0.823007 0
0.115836 0
0.200798 0
0.194186 0
0.0528316 0
0.818652 0
0.63597 0
0.288282 0
0.282643 0
0.917718 0
0.84703 0
0.833199 0
0.255861 0
0.217758 0
0.892335 0
0.993592 0
0.134048 0
0.86709 0
0.90816 0
0.128283 0
0.713679 0
0.794515 0
0.66254 0
0.296702 0
0.0159408 0
0.270168 0
0.550211 0
0.639916 0
0.510797 0
0.0587656 0
0.457948 0
0.333804 0
0.174602 0
0.658746 0
0.527991 0
0.227434 0
0.477398 0
0.16396 0
0.515716 0
0.760041 0
0.0816783 0
0.362747 0
0.593239 0
0.337539 0
0.580504 0
0.485575 0
0.331131 0
0.714552 0
0.352664 0
0.239291 0
0.842835 0
15.0601 -3.81533e-50
344.273 -1.10011e-50
361.25 -1.0194e-50
76.8382 2.35835e-51
376.639 -8.71603e-51
206.666 4.90766e-52
118.673 -7.99683e-51
375.808 -1.66889e-50
3994.8 -3.43128e-49
278.602 -8.80151e-51
189.833 -1.00015e-50
597.655 -1.37953e-50
307.793 -2.82084e-51
469.377 -1.57296e-50
401.065 -1.94266e-50
482.393 -8.20276e-51
-477.231 -9.90072e-09
392.939 -1.2125e-09
435.272 -1.00479e-09
91.3165 -8.85468e-10
447.321 -1.5085e-09
196.583 -2.40085e-09
-38.3912 -3.28029e-09
379.863 -2.56226e-09
5101.42 1.84971e-09
244.565 -1.95569e-09
125.889 -1.37993e-09
-63.5204 -1.2823e-08
282.371 -1.90352e-09
483.765 -1.46618e-09
426.637 -2.0505e-09
504.093 -4.49419e-09
64.0869 -1.13663e-08
511.417 -1.37411e-09
421.793 -1.06766e-09
161.572 -1.04427e-09
568.951 -1.72623e-09
128.058 -2.50806e-09
331.619 -3.75813e-09
575.801 -2.89125e-09
2337.17 1.0942e-09
293.155 -2.13971e-09
189.656 -1.52699e-09
495.517 -1.43649e-08
520.458 -2.21864e-09
614.301 -1.63693e-09
489.602 -2.39438e-09
426.747 -4.99061e-09
-1379.04 -9.76297e-09
309.308 -1.14104e-09
398.96 -6.75989e-10
54.1997 -9.95466e-10
319.328 -1.48401e-09
-607.826 -1.47382e-09
-204.345 -3.27351e-09
43.2469 -2.38515e-09
-62.3728 -2.40034e-09
-132.369 -1.5675e-09
-241.124 -1.17197e-09
-2650.96 -1.15414e-08
162.933 -2.02253e-09
336.84 -1.28502e-09
91.5281 -2.21422e-09
-470.226 -4.0061e-09
3724.65 -0.0738814
1433.74 0.0142623
1743.24 0.0151204
289.799 -0.0158195
1717.69 0.00976277
199.634 -0.018021
1591.59 -0.0203029
1954.97 0.00648866
7717.41 0.547527
1378.06 0.00191467
591.974 0.00652132
3452.48 -0.068784
1527.92 -0.00466588
2380.63 0.023487
1857.38 0.0171101
878.838 -0.0170477
4037.96 -0.160298
1385.54 0.0309438
2230.07 0.0328056
-229.639 -0.0343227
1554.49 0.0211814
-52.6962 -0.0390995
1418.26 -0.0440504
1926.93 0.0140776
19774.3 1.18793
1494.52 0.00415385
598.802 0.0141486
3248.46 -0.149238
1107.28 -0.0101234
2978.71 0.0509582
2182.47 0.0371222
818.233 -0.0369881
3647.03 0.239298
7.46706 0.0952852
1247.18 0.0868756
-998.885 -0.00390667
-62.2218 0.0958705
-1295.95 0.0645828
571.487 0.0926015
525.062 0.133801
30425.6 1.3393
331.782 0.0944015
-70.9775 0.0826916
-904.674 0.405007
-896.286 0.0764034
2005.74 0.131489
1367.09 0.138016
-1204.55 0.163725
4671.11 1.11453
-929.813 0.232833
426.826 0.24321
-2087.49 0.0472537
-1418.61 0.247016
-1198.83 0.401533
154.731 0.382006
-55.4455 0.406239
51968.7 1.35912
-71.9196 0.335036
249.659 0.252652
-865.287 1.69956
-2301.53 0.225641
1782.61 0.318813
1098 0.325464
-1383.15 0.652807
4110.25 12.8294
-1585.65 1.60031
-63.2895 1.53418
-3143 0.763698
-2396.07 1.85739
-647.928 3.1204
-360.179 3.49388
-777.638 3.09313
51496.3 0.727304
118.498 2.48649
500.989 1.76876
697.519 14.5532
-2801.4 2.06006
1470.71 2.07447
19.7926 2.40647
-1204.18 5.32459
853 25.2245
-1897.99 3.06248
-233.242 2.78333
-4047.64 1.57347
-2751.33 3.60718
-405.438 5.66177
-1187.82 6.8348
-2012.06 5.91579
20366.7 1.03911
353.021 4.63681
40.2555 3.31636
3589.18 27.9835
-2029.24 4.13873
512.014 3.90276
-2176.21 4.72478
-918.881 10.1362
-3049.41 24.5433
-2072.14 2.96299
-304.694 2.65538
-3379.61 1.54838
-2038.68 3.50365
-871.814 5.41309
-1598.04 6.64802
-2932.24 5.72076
-34312.1 0.653173
517.172 4.45785
-1122.24 3.19206
3351.58 27.1453
-501.144 4.0586
-1156.07 3.75882
-3796.46 4.59509
-1861.52 9.8047
-10770.1 6.48392
-2976.88 0.767678
-1211.74 0.654505
-1958.18 0.426267
-2077.9 0.919338
-2563.27 1.33154
-3734.08 1.75071
-4859.21 1.48123
-70848.5 0.102203
-956.024 1.12632
-2953.46 0.810585
-7429.33 7.03748
-896.793 1.09075
-4041.82 0.957962
-5111.92 1.2172
-4541.95 2.52213
-6716 6.81902
-2625.51 0.821661
-1613.22 0.694482
-339.194 0.448139
-1300.71 0.973938
-1906.95 1.40048
-2653.99 1.84367
-3963.22 1.56942
-71182.1 0.533638
-1001.77 1.18352
-2899.02 0.864256
-5419.36 7.40602
-584.619 1.14916
-4457.29 1.01727
-4173.73 1.29453
-4022.89 2.66621
7505.72 25.6512
90.276 3.11011
250.061 2.64654
2100.36 1.68588
1695.72 3.698
1363.07 5.33455
1780.64 7.01008
1237.8 5.95756
-14457.4 1.72445
1478.48 4.52165
-380.941 3.28509
6513.97 28.2079
884.718 4.37412
-435.529 3.87915
1104.18 4.90973
60.2459 10.1333
7488.77 25.2312
88.4021 3.07237
-327.426 2.6244
2985.44 1.63167
1221.72 3.64771
970.585 5.18895
738.983 6.85811
1164.6 5.86835
32916.5 3.02489
-277.245 4.44918
-801.508 3.23138
-702.845 27.5565
-1573.09 4.2749
-848.653 3.84953
2045.85 4.86479
-242.319 9.90128
158.718 -0.152675
-441.209 0.0310938
-1353.99 0.0363669
2152.05 -0.0371176
-223.205 0.0205825
-730.442 -0.0695861
-2194.15 -0.0519287
-880.599 0.0179185
54493.3 1.87091
-2808.46 0.00213251
-1804.19 0.0122922
-11067.9 -0.2622
-3770.61 -0.0300728
-2004.54 0.0565364
674.352 0.0520313
-1345.11 -0.0730929
2874 0.173722
1285.29 0.104371
-184.097 0.178944
1729.6 -0.0453625
1165.9 0.0828468
366.006 0.272869
-320.944 0.0598968
1207.87 0.165058
50387.1 1.19159
-1257.19 0.185414
-263.778 0.13249
-3112.35 0.502391
-1402.38 -0.00635605
673.121 0.178087
1912.78 0.0891961
860.98 0.252886
1350.43 0.554618
1984.29 0.153822
476.232 0.294463
314.899 -0.0380686
1424.29 0.126562
193.842 0.636816
397.768 0.185621
1471.06 0.290743
19035.1 -0.406531
-139.037 0.357667
555.733 0.238138
1913.45 1.3621
625.461 0.024047
2074.41 0.260281
1181.23 0.0919516
1221.25 0.595491
2043.65 0.628116
1682.79 0.140031
606.383 0.279751
-493.173 -0.0222579
1093.52 0.117246
-53.7814 0.655809
1177.53 0.206315
1353.86 0.284704
402.092 -0.966692
674.726 0.356163
1063.62 0.231995
4867.17 1.43417
1413.09 0.0295055
2569.93 0.237332
816.538 0.0749901
729.818 0.613913
985.943 0.628116
405.957 0.140031
35.4471 0.279751
-890.998 -0.0222579
115.792 0.117246
-694.945 0.655809
870.517 0.206315
17.9764 0.284704
-18774.1 -0.966692
433.598 0.356162
337.39 0.231995
3759.44 1.43417
905.203 0.0295054
1194.16 0.237332
-559.589 0.0749901
-804.77 0.613913
-1821.72 -1.44182e-05
-352.977 -2.7134e-06
-381.86 -2.4583e-06
-799.199 -1.16871e-06
-579.198 -2.91077e-06
-1072.2 -3.11951e-06
-242.275 -3.10607e-06
-938.319 -4.54111e-06
-17744.1 -7.0352e-05
-319.113 -2.71834e-06
-293.856 -2.58943e-06
-718.005 -1.13535e-05
-14.9614 -1.43909e-06
-112.292 -2.58639e-06
-1179.44 -4.8046e-06
-1392.76 -6.30633e-06
-2009.47 -5.50055e-41
-221.775 -9.91378e-42
-201.16 -8.34414e-42
-408.82 -3.07801e-42
-384.193 -1.09578e-41
-532.426 -9.20643e-42
-527.305 -7.48302e-42
-602.073 -1.65556e-41
-4597.8 -4.17104e-40
-327.979 -8.9153e-42
-197.241 -9.17291e-42
-1717.83 -3.03715e-41
-223.167 -2.18519e-42
-205.124 -8.17465e-42
-597.071 -2.00307e-41
-610.607 -2.14492e-41
-73.1651 3.24657e-212
-23.7301 6.24586e-213
-18.8123 1.04771e-212
-24.6125 -2.49466e-214
-26.7287 5.71497e-213
-23.3533 2.34261e-212
-21.3481 1.0126e-212
-41.4456 1.24873e-212
-653.384 -1.12466e-212
-15.6674 1.35888e-212
-23.0303 8.98774e-213
-37.2569 5.81537e-212
-12.5852 2.64233e-213
-28.2393 9.97465e-213
-52.8024 5.11188e-213
-44.0315 2.28596e-212
-153.882 -2.64277e-225
-40.2803 -9.4165e-226
-38.3247 -8.38326e-226
-38.3383 2.38065e-226
-47.269 -7.22191e-226
-61.9314 2.68337e-226
-35.2056 -3.05943e-226
-79.2586 -1.25676e-225
-1303.09 -3.86668e-224
-38.7681 -6.28615e-226
-40.4077 -9.32653e-226
-87.7091 1.99957e-226
-13.4832 6.63265e-227
-46.3125 -1.37597e-225
-92.554 -1.79096e-225
-86.4237 -4.91695e-226
0.268322 0
0.940568 0
0.191643 0
0.941449 0
0.697346 0
0.161925 0
0.236424 0
0.955298 0
0.713575 0
0.784994 0
0.502371 0
0.503216 0
0.110226 0
0.502139 0
0.180685 0
0.217636 0
0.926282 0
0.513872 0
0.0247237 0
0.512248 0
0.682776 0
0.709824 0
0.870589 0
0.356945 0
0.663843 0
0.222349 0
0.54791 0
0.806207 0
0.541542 0
0.322117 0
0.454788 0
0.809865 0
0.262685 0
0.646432 0
0.751314 0
0.96003 0
0.808357 0
0.987738 0
0.915328 0
0.521932 0
0.772732 0
0.4177 0
0.0251486 0
0.882958 0
0.919839 0
0.205833 0
0.100595 0
0.846121 0
0.719705 0
0.125318 0
0.358369 0
0.402482 0
0.835142 0
0.228958 0
0.759427 0
0.498986 0
0.451307 0
0.307337 0
0.305192 0
0.99285 0
0.629454 0
0.759981 0
0.802714 0
0.892138 0
83.039 8.54245e-70
221.645 3.6917e-70
235.099 3.95805e-70
45.667 8.94945e-71
236.361 4.13514e-70
144.852 5.45005e-70
79.8317 4.85712e-70
257.336 4.96991e-70
3192.75 -3.34708e-69
175.149 4.08083e-70
130.439 2.7692e-70
374.091 2.25517e-69
174.93 4.8108e-70
313.59 4.97826e-70
284.191 3.75129e-70
314.516 8.66732e-70
-60.9152 4.85013e-37
354.977 5.75259e-38
410.911 5.76427e-38
134.301 5.78167e-38
432.57 7.31842e-38
233.606 1.56708e-37
66.7984 1.73233e-37
452.81 1.17965e-37
6496.94 -1.31697e-36
283.157 9.86053e-38
174.352 5.23805e-38
-31.2705 5.30801e-37
221.4 1.10075e-37
516.648 6.85765e-38
529.828 7.33095e-38
430.084 1.81466e-37
22.503 4.98813e-10
388.673 5.65263e-11
359.791 4.90233e-11
68.8991 3.71562e-11
490.705 6.93635e-11
-63.9556 1.10065e-10
435.623 1.39164e-10
439.209 1.11587e-10
-3093.01 -2.47897e-10
325.948 8.66384e-11
120.351 6.03578e-11
567.733 5.61065e-10
611.525 8.75383e-11
553.548 6.95637e-11
259.184 8.69382e-11
82.1507 1.48647e-10
3016.31 1.60392e-09
836.521 1.99682e-10
948.528 2.38619e-10
367.724 9.51145e-11
1107.89 2.29879e-10
-41.0886 5.889e-10
1431.53 4.60492e-10
1334.12 4.09886e-10
414.752 -1.72869e-09
952.078 3.80102e-10
454.201 2.49773e-10
2077.48 2.1568e-09
1093.63 2.52257e-10
1555.91 2.68225e-10
1215.34 2.4547e-10
42.2109 6.53181e-10
7364.1 -0.00923517
1724.06 0.00178279
2150 0.00189005
552.296 -0.00197743
2257.36 0.00122035
542.497 -0.00225262
2873.56 -0.00253786
2958.29 0.000811084
12920 0.0684408
2186.44 0.000239335
1164.03 0.000815165
6486.96 -0.008598
1991.15 -0.000583234
3413.06 0.00293588
2956.08 0.00213876
1054 -0.00213096
5660.65 -0.10027
917.829 0.0193556
1620.58 0.0205202
-267.814 -0.0214692
1166.82 0.0132491
-678.217 -0.0244567
1799.74 -0.0275537
1738.51 0.00880542
24193.3 0.743037
1178.73 0.00259831
634.797 0.00885021
2530.27 -0.0933497
559.579 -0.00633183
2929.63 0.031875
2340.78 0.0232197
-273.088 -0.0231362
5721.36 0.335646
-291.389 0.0755082
540.792 0.0677286
-1439.43 0.0126768
-384.838 0.0814237
-1377.37 0.0684338
1374 0.111037
628.699 0.124758
36419.3 1.01681
384.831 0.0888851
553.05 0.0711355
1806.96 0.4339
-860.155 0.0705102
2407.07 0.102405
1607.34 0.122736
-1225.29 0.1629
11142.4 15.9118
-223.595 1.94015
587.234 1.65912
-1643.04 1.04746
-507.983 2.31021
250.736 3.31119
2836.67 4.37604
1678.89 3.72505
58027.7 1.49783
1452.01 2.8304
1907.8 2.05008
9160.39 17.5482
-677.312 2.72014
3594.11 2.43183
2617.06 3.0781
695.172 6.30255
12871 24.4921
-643.337 2.96631
306.622 2.66023
-2210.09 1.54365
-1084.36 3.50347
1141.16 5.3874
2674.66 6.64085
1004.93 5.72539
55014.4 1.37125
1823.44 4.45595
1961.44 3.19436
13941.9 27.0497
-756 4.04197
3098.59 3.76658
1485.55 4.60967
1507.28 9.77743
9744.15 25.2166
-1649.38 3.06206
-68.7403 2.78095
-2759.82 1.57441
-1927.28 3.60705
819.407 5.67773
933.833 6.83777
-1249.08 5.91266
20177.1 0.668533
1226.84 4.63723
230.012 3.31703
13238.1 28.0432
-1180.5 4.1492
574.729 3.89927
-1527.8 4.71596
496.565 10.1549
-900.299 9.77913
-3533.06 1.22448
-1438.98 1.20664
-2588.19 0.57527
-2979.53 1.41464
-1222.77 2.52817
-2213.35 2.67512
-4702.96 2.3763
-43066.6 -0.582376
-502.216 1.947
-2609.77 1.37655
2158.5 11.3491
-2036.31 1.565
-3779.56 1.59382
-5268.61 1.7971
-3350.3 4.16701
-9230.81 -0.0674925
-4582.31 -0.00374988
-2693.82 -0.0100239
-1697.17 0.00145333
-3409.15 -0.00839933
-2271.9 -0.0105948
-4293.52 -0.0181372
-6284.68 -0.0142981
-79895 -0.0684444
-1786.29 -0.0190371
-3981.92 -0.00704225
-8206.18 -0.072477
-2614.4 -0.00877496
-6538.53 -0.0153272
-6686.41 -0.0131985
-5810.03 -0.01811
-626.492 7.25854
-3098.39 0.891926
-1939.28 0.752715
193.906 0.484059
-1570.07 1.05586
-255.12 1.52601
-1566.76 1.99811
-3109.03 1.69972
-50651.6 0.445861
-370.805 1.28359
-2439.71 0.940411
-1752.62 8.04932
-1702.17 1.25092
-4488.1 1.10333
-3344.54 1.39931
-3600.34 2.89963
11010.8 25.7062
-599.527 3.14055
-354.213 2.67462
2324.57 1.68176
801.96 3.72773
2170.56 5.35026
1637.58 7.03315
1442.45 5.99757
25779.3 2.21186
1081.06 4.54946
-155.212 3.31048
5025.76 28.3135
-1350.94 4.39565
-687.249 3.9218
1965.51 4.95289
86.5646 10.178
5284.56 24.6643
-712.431 2.99315
-1293.89 2.56607
2531.93 1.57773
-254.595 3.55521
472.406 5.02379
-1042.49 6.66118
88.6102 5.71583
72128.3 3.44878
-1912.09 4.33508
-1022.1 3.14122
-7260.6 26.7261
-3974.93 4.14749
-1623.55 3.76334
1928.84 4.74994
-448.156 9.60193
-3817.03 0.323791
-1060.91 0.137015
-2145.42 0.246913
1243.91 -0.0526663
-1544.53 0.10962
-1173.59 0.424536
-3926.8 0.105507
-1917.26 0.23318
76582.8 1.11792
-4037.78 0.270516
-1709.42 0.187229
-16599 0.821211
-5108.01 -0.00601197
-2466.14 0.235454
212.887 0.109102
-1200.68 0.390948
-3134.35 0.4854
753.985 0.165646
-1097.51 0.310538
662.796 -0.0570042
-66.5314 0.133337
-243.953 0.586337
-2038.43 0.155179
34.5647 0.297885
51243.6 0.792202
-2348.35 0.355201
-108.57 0.24031
-7793.07 1.17626
-1849.24 -0.00227369
23.8442 0.285704
928.118 0.121065
974.774 0.538474
-10000.5 0.619021
446.428 0.141137
-1366.98 0.281123
-1565.36 -0.0243634
-1084.7 0.11781
-1643.49 0.651585
-3105.65 0.202938
-1629.75 0.284903
12936.2 -0.870912
-2338.7 0.355729
35.8875 0.23214
-8200.51 1.41892
-946.16 0.0274666
214.57 0.239583
-1396.4 0.0771337
-259.137 0.609082
-5248.54 0.537839
505.913 0.11567
-653.176 0.218452
-1651.07 -0.0111073
-556.854 0.100406
-1211.59 0.510613
-1063.09 0.178303
-750.883 0.233264
-3498.2 -0.741324
-623.291 0.282145
671.262 0.185464
-1815.34 1.17336
247.131 0.0378046
1321.84 0.19094
-920.818 0.0722032
-607.89 0.495796
-7600.2 0.224997
-781.154 0.0459255
-1084.07 0.0791222
-1824.85 -2.32021e-05
-1563.64 0.0420101
-2264.15 0.183991
-1984.4 0.0755463
-2370.13 0.091465
-17367.8 -0.25995
-1329.07 0.104759
-517.849 0.0699189
-6071.81 0.459075
-793.402 0.0231082
-367.334 0.0727359
-2328.87 0.03485
-2567.35 0.190036
-5238.44 -1.44182e-05
-828.039 -2.7134e-06
-807.633 -2.4583e-06
-1237.03 -1.16871e-06
-1266.47 -2.91077e-06
-1788.03 -3.11951e-06
-1357.65 -3.10607e-06
-1934.4 -4.54111e-06
-19956 -7.0352e-05
-1057.05 -2.71834e-06
-725.91 -2.58943e-06
-4570.46 -1.13535e-05
-671.391 -1.43909e-06
-803.631 -2.58639e-06
-2016.21 -4.8046e-06
-2222.05 -6.30633e-06
-2292.08 6.68884e-32
-310.495 -4.05704e-32
-326.068 -2.59271e-32
-509.119 5.11253e-32
-492.194 -1.34843e-32
-595.057 1.27676e-31
-578.94 6.63764e-32
-731.717 -2.45917e-32
-7356.85 -3.5054e-30
-383.107 1.31078e-32
-229.293 -3.25908e-32
-1755.05 3.8656e-31
-242.219 5.25529e-32
-312.595 -6.63991e-32
-788.614 -9.13021e-32
-727.359 1.06053e-31
-315.318 -1.3294e-208
-49.8968 -6.58017e-210
-61.2738 -1.05351e-209
-59.5958 -1.41366e-209
-70.4698 -1.5245e-209
-56.4659 -1.66603e-209
-93.2133 -3.51848e-209
-99.1438 -2.34519e-209
-736.757 8.75875e-209
-58.5771 -1.90485e-209
-29.5881 -1.98135e-210
-240.874 -1.10975e-208
-40.8078 -1.47292e-209
-60.7188 -1.15816e-209
-103.663 -1.90256e-209
-69.7634 -2.78408e-209
-122.607 -2.10691e-225
-31.6221 -7.50717e-226
-30.4738 -6.68343e-226
-30.5137 1.89794e-226
-38.0199 -5.75756e-226
-49.4296 2.13927e-226
-27.994 -2.43909e-226
-62.9304 -1.00194e-225
-1039.3 -3.08265e-224
-31.4361 -5.01154e-226
-31.8555 -7.43544e-226
-69.3827 1.59412e-226
-10.347 5.28778e-227
-36.6039 -1.09697e-225
-74.2497 -1.42781e-225
-69.4063 -3.91997e-226
0.497766 0
0.172786 0
0.355281 0
0.873679 0
0.107277 0
0.488629 0
0.59983 0
0.561657 0
0.928286 0
0.0117039 0
0.692853 0
0.135565 0
0.719634 0
0.174719 0
0.301811 0
0.877589 0
0.00364017 0
0.647501 0
0.571946 0
0.135332 0
0.726468 0
0.191244 0
0.678316 0
0.830847 0
0.422939 0
0.317687 0
0.525147 0
0.938713 0
0.890212 0
0.679973 0
0.949488 0
0.387979 0
0.85276 0
0.30477 0
0.261658 0
0.960037 0
0.793399 0
0.861487 0
0.521694 0
0.721685 0
0.873191 0
0.214547 0
0.85725 0
0.592825 0
0.389266 0
0.159061 0
0.470413 0
0.392906 0
-27.477 -2.23283e-203
-7.65195 -1.37057e-203
-7.27194 -1.21133e-203
-5.57399 7.11852e-204
-8.26274 -9.27799e-204
-10.0103 1.24747e-203
-2.71538 3.25417e-204
-13.7698 -1.63188e-203
-353.083 -7.43364e-202
-5.29333 -6.42897e-204
-6.9049 -1.30662e-203
-8.98371 3.62849e-203
1.06358 6.45643e-204
-8.55223 -2.08254e-203
-18.9541 -2.80779e-203
-16.131 2.11282e-204
-337.84 -3.0273e-94
-22.92 -3.7875e-95
-15.2371 -3.18348e-95
-12.8754 -2.60179e-95
-24.2175 -4.70414e-95
-53.8326 -7.51319e-95
-129.806 -1.02979e-94
-70.078 -7.97639e-95
630.377 1.09296e-94
-67.4002 -6.12675e-95
-44.8541 -4.27686e-95
-506.672 -3.98981e-94
-60.338 -6.01973e-95
-37.6931 -5.13937e-95
-34.2274 -6.25687e-95
-49.7604 -1.32878e-94
-193.545 4.85013e-37
141.949 5.75259e-38
171.52 5.76427e-38
145.762 5.78167e-38
203.694 7.31842e-38
-16.2343 1.56708e-37
-67.8606 1.73233e-37
203.241 1.17965e-37
6403.78 -1.31697e-36
40.6119 9.86053e-38
48.0904 5.23805e-38
-1065.44 5.30801e-37
-34.003 1.10075e-37
266.531 6.85765e-38
367.149 7.33095e-38
-7.16664 1.81466e-37
1880.62 6.52767e-10
563.943 7.39727e-11
569.885 6.4154e-11
193.561 4.86241e-11
706.511 9.0772e-11
155.071 1.44036e-10
972.327 1.82116e-10
924.713 1.46027e-10
2474.12 -3.24408e-10
675.261 1.13379e-10
442.782 7.89868e-11
2005.78 7.34233e-10
743.169 1.14556e-10
1070.6 9.1034e-11
845.794 1.13771e-10
259.714 1.94526e-10
8267.08 1.55802e-09
1388.56 1.76557e-10
1357.79 1.53122e-10
636.091 1.16056e-10
1912.94 2.16654e-10
